{"learner":{"attributes":{"scikit_learn":"{\"_estimator_type\": \"regressor\"}"},"feature_names":[],"feature_types":[],"gradient_booster":{"model":{"cats":{"enc":[],"feature_segments":[],"sorted_idx":[]},"gbtree_model_param":{"num_parallel_tree":"1","num_trees":"500"},"iteration_indptr":[0,1,2,3,4,5,6,7,8,9,10,11,12,13,14,15,16,17,18,19,20,21,22,23,24,25,26,27,28,29,30,31,32,33,34,35,36,37,38,39,40,41,42,43,44,45,46,47,48,49,50,51,52,53,54,55,56,57,58,59,60,61,62,63,64,65,66,67,68,69,70,71,72,73,74,75,76,77,78,79,80,81,82,83,84,85,86,87,88,89,90,91,92,93,94,95,96,97,98,99,100,101,102,103,104,105,106,107,108,109,110,111,112,113,114,115,116,117,118,119,120,121,122,123,124,125,126,127,128,129,130,131,132,133,134,135,136,137,138,139,140,141,142,143,144,145,146,147,148,149,150,151,152,153,154,155,156,157,158,159,160,161,162,163,164,165,166,167,168,169,170,171,172,173,174,175,176,177,178,179,180,181,182,183,184,185,186,187,188,189,190,191,192,193,194,195,196,197,198,199,200,201,202,203,204,205,206,207,208,209,210,211,212,213,214,215,216,217,218,219,220,221,222,223,224,225,226,227,228,229,230,231,232,233,234,235,236,237,238,239,240,241,242,243,244,245,246,247,248,249,250,251,252,253,254,255,256,257,258,259,260,261,262,263,264,265,266,267,268,269,270,271,272,273,274,275,276,277,278,279,280,281,282,283,284,285,286,287,288,289,290,291,292,293,294,295,296,297,298,299,300,301,302,303,304,305,306,307,308,309,310,311,312,313,314,315,316,317,318,319,320,321,322,323,324,325,326,327,328,329,330,331,332,333,334,335,336,337,338,339,340,341,342,343,344,345,346,347,348,349,350,351,352,353,354,355,356,357,358,359,360,361,362,363,364,365,366,367,368,369,370,371,372,373,374,375,376,377,378,379,380,381,382,383,384,385,386,387,388,389,390,391,392,393,394,395,396,397,398,399,400,401,402,403,404,405,406,407,408,409,410,411,412,413,414,415,416,417,418,419,420,421,422,423,424,425,426,427,428,429,430,431,432,433,434,435,436,437,438,439,440,441,442,443,444,445,446,447,448,449,450,451,452,453,454,455,456,457,458,459,460,461,462,463,464,465,466,467,468,469,470,471,472,473,474,475,476,477,478,479,480,481,482,483,484,485,486,487,488,489,490,491,492,493,494,495,496,497,498,499,500],"tree_info":[0,0,0,0,0,0,0,0,0,0,0,0,0,0,0,0,0,0,0,0,0,0,0,0,0,0,0,0,0,0,0,0,0,0,0,0,0,0,0,0,0,0,0,0,0,0,0,0,0,0,0,0,0,0,0,0,0,0,0,0,0,0,0,0,0,0,0,0,0,0,0,0,0,0,0,0,0,0,0,0,0,0,0,0,0,0,0,0,0,0,0,0,0,0,0,0,0,0,0,0,0,0,0,0,0,0,0,0,0,0,0,0,0,0,0,0,0,0,0,0,0,0,0,0,0,0,0,0,0,0,0,0,0,0,0,0,0,0,0,0,0,0,0,0,0,0,0,0,0,0,0,0,0,0,0,0,0,0,0,0,0,0,0,0,0,0,0,0,0,0,0,0,0,0,0,0,0,0,0,0,0,0,0,0,0,0,0,0,0,0,0,0,0,0,0,0,0,0,0,0,0,0,0,0,0,0,0,0,0,0,0,0,0,0,0,0,0,0,0,0,0,0,0,0,0,0,0,0,0,0,0,0,0,0,0,0,0,0,0,0,0,0,0,0,0,0,0,0,0,0,0,0,0,0,0,0,0,0,0,0,0,0,0,0,0,0,0,0,0,0,0,0,0,0,0,0,0,0,0,0,0,0,0,0,0,0,0,0,0,0,0,0,0,0,0,0,0,0,0,0,0,0,0,0,0,0,0,0,0,0,0,0,0,0,0,0,0,0,0,0,0,0,0,0,0,0,0,0,0,0,0,0,0,0,0,0,0,0,0,0,0,0,0,0,0,0,0,0,0,0,0,0,0,0,0,0,0,0,0,0,0,0,0,0,0,0,0,0,0,0,0,0,0,0,0,0,0,0,0,0,0,0,0,0,0,0,0,0,0,0,0,0,0,0,0,0,0,0,0,0,0,0,0,0,0,0,0,0,0,0,0,0,0,0,0,0,0,0,0,0,0,0,0,0,0,0,0,0,0,0,0,0,0,0,0,0,0,0,0,0,0,0,0,0,0,0,0,0,0,0,0,0,0,0,0,0,0,0,0,0,0,0,0,0,0,0,0,0,0,0,0,0,0,0,0,0,0,0,0,0,0,0,0,0,0,0,0,0,0,0,0,0,0,0,0,0,0,0,0,0],"trees":[{"base_weights":[5.7910293E-1,-5.791799E0,4.0048313E1,-1.271837E1,5.3019195E0,5.3647957E1,1.8318913E1,-1.9739325E1,-7.2910423E0,-4.523377E-2,1.8996952E1,1.2971266E1,5.9598335E1,1.0459734E1,2.7370617E1,-6.2490565E-1,-1.3362746E-1,5.309586E-1,-2.3423003E-1,6.777513E-1,-1.5745828E-1,3.3831153E-2,7.905671E-1,-9.928809E-2,9.106601E-1,-2.859483E-1,1.8640741E0,3.83777E-1,-9.407355E-2,8.75322E-1,1.395419E-1],"categories":[],"categories_nodes":[],"categories_segments":[],"categories_sizes":[],"default_left":[0,0,0,0,0,0,0,0,0,0,0,0,0,0,0,0,0,0,0,0,0,0,0,0,0,0,0,0,0,0,0],"id":0,"left_children":[1,3,5,7,9,11,13,15,17,19,21,23,25,27,29,-1,-1,-1,-1,-1,-1,-1,-1,-1,-1,-1,-1,-1,-1,-1,-1],"loss_changes":[1.10369016E5,2.911349E4,1.704346E4,8.734555E3,1.0692357E4,8.1824766E3,1.4921846E3,1.5912852E3,1.8552549E3,1.2604158E4,5.3590527E3,1.7986311E3,6.205539E3,5.1585583E2,3.158203E2,0E0,0E0,0E0,0E0,0E0,0E0,0E0,0E0,0E0,0E0,0E0,0E0,0E0,0E0,0E0,0E0],"parents":[2147483647,0,0,1,1,2,2,3,3,4,4,5,5,6,6,7,7,8,8,9,9,10,10,11,11,12,12,13,13,14,14],"right_children":[2,4,6,8,10,12,14,16,18,20,22,24,26,28,30,-1,-1,-1,-1,-1,-1,-1,-1,-1,-1,-1,-1,-1,-1,-1,-1],"split_conditions":[1.1036877E1,1.1421857E2,5.3960794E-1,-2.6639345E0,1.2625633E0,1.02E0,2.008435E1,8.43774E0,-1.1435106E-1,-1.4057091E1,-5.33588E0,1.06654E1,9E0,8.39E0,3.22E0,-6.2490565E-1,-1.3362746E-1,5.309586E-1,-2.3423003E-1,6.777513E-1,-1.5745828E-1,3.3831153E-2,7.905671E-1,-9.928809E-2,9.106601E-1,-2.859483E-1,1.8640741E0,3.83777E-1,-9.407355E-2,8.75322E-1,1.395419E-1],"split_indices":[10,9,43,10,10,7,10,22,27,4,18,6,11,2,7,0,0,0,0,0,0,0,0,0,0,0,0,0,0,0,0],"split_type":[0,0,0,0,0,0,0,0,0,0,0,0,0,0,0,0,0,0,0,0,0,0,0,0,0,0,0,0,0,0,0],"sum_hessian":[4.37E2,3.77E2,6E1,2.32E2,1.45E2,3.6E1,2.4E1,1E2,1.32E2,1.05E2,4E1,5E0,3.1E1,1.4E1,1E1,9.3E1,7E0,2E0,1.3E2,1.9E1,8.6E1,1.2E1,2.8E1,3E0,2E0,1E0,3E1,1.2E1,2E0,9E0,1E0],"tree_param":{"num_deleted":"0","num_feature":"44","num_nodes":"31","size_leaf_vector":"1"}},{"base_weights":[1.0527027E0,-4.9953065E0,3.4484074E1,3.3085735E1,-8.013575E0,6.799321E1,2.8000296E1,-1.4541004E1,4.2000866E1,-1.7503485E1,-2.3886108E0,2.151714E0,5.1626724E-1,2.0341957E1,1.9975362E0,-5.8037126E-1,-1.4667894E-1,1.508359E0,-2.9664603E-1,5.50469E-2,-5.7020205E-1,2.1210676E-1,-2.1107265E-1,-2.7792194E-1,6.7422533E-1],"categories":[],"categories_nodes":[],"categories_segments":[],"categories_sizes":[],"default_left":[0,0,0,0,0,0,0,0,0,0,0,0,0,0,0,0,0,0,0,0,0,0,0,0,0],"id":1,"left_children":[1,3,5,7,9,11,13,15,17,19,21,-1,-1,23,-1,-1,-1,-1,-1,-1,-1,-1,-1,-1,-1],"loss_changes":[8.711535E4,4.2217793E4,1.2435719E4,1.2074896E4,1.8054143E4,6.6026953E2,1.5488543E4,1.37281E2,1.0376254E4,3.697754E3,9.456453E3,0E0,0E0,3.3014023E3,0E0,0E0,0E0,0E0,0E0,0E0,0E0,0E0,0E0,0E0,0E0],"parents":[2147483647,0,0,1,1,2,2,3,3,4,4,5,5,6,6,7,7,8,8,9,9,10,10,13,13],"right_children":[2,4,6,8,10,12,14,16,18,20,22,-1,-1,24,-1,-1,-1,-1,-1,-1,-1,-1,-1,-1,-1],"split_conditions":[8.64672E0,-2.969E1,-1.015E1,1.0404235E2,-2.6639345E0,3.0515555E2,4.748248E1,-1.316E1,1.1131829E1,-1.9047619E1,-8.3E-1,2.151714E0,5.1626724E-1,9.798992E1,1.9975362E0,-5.8037126E-1,-1.4667894E-1,1.508359E0,-2.9664603E-1,5.50469E-2,-5.7020205E-1,2.1210676E-1,-2.1107265E-1,-2.7792194E-1,6.7422533E-1],"split_indices":[10,1,1,9,10,9,10,2,32,10,1,0,0,12,0,0,0,0,0,0,0,0,0,0,0],"split_type":[0,0,0,0,0,0,0,0,0,0,0,0,0,0,0,0,0,0,0,0,0,0,0,0,0],"sum_hessian":[4.29E2,3.64E2,6.5E1,2.6E1,3.38E2,9E0,5.6E1,4E0,2.2E1,1.25E2,2.13E2,8E0,1E0,4.8E1,8E0,2E0,2E0,1.9E1,3E0,9E0,1.16E2,7E1,1.43E2,3E0,4.5E1],"tree_param":{"num_deleted":"0","num_feature":"44","num_nodes":"25","size_leaf_vector":"1"}},{"base_weights":[-1.5853472E-1,-6.553922E0,2.4843418E1,3.0771708E1,-8.952948E0,1.4443513E1,4.6613087E1,1.1752189E1,1.6447579E0,-1.5456497E1,-1.0169971E0,2.9324556E1,-1.9110503E0,1.2844683E1,5.9478214E1,-1.6965127E-1,1.222043E0,-5.023398E-1,1.686721E-1,2.1539365E-1,-1.886421E-1,1.6934081E0,6.268353E-1,1.4783427E-1,-7.525668E-1,6.294493E-1,-3.1269354E-1,2.2579558E0,5.8222073E-1],"categories":[],"categories_nodes":[],"categories_segments":[],"categories_sizes":[],"default_left":[0,0,0,0,0,0,0,0,0,0,0,0,0,0,0,0,0,0,0,0,0,0,0,0,0,0,0,0,0],"id":2,"left_children":[1,3,5,7,9,11,13,15,-1,17,19,21,23,25,27,-1,-1,-1,-1,-1,-1,-1,-1,-1,-1,-1,-1,-1,-1],"loss_changes":[6.907849E4,3.1079023E4,1.9250168E4,8.96291E3,1.6706516E4,1.4901791E4,1.1400195E4,6.7889404E3,0E0,4.9273945E3,6.3964087E3,6.1371426E3,4.8782334E3,1.922657E3,1.1191258E4,0E0,0E0,0E0,0E0,0E0,0E0,0E0,0E0,0E0,0E0,0E0,0E0,0E0,0E0],"parents":[2147483647,0,0,1,1,2,2,3,3,4,4,5,5,6,6,7,7,9,9,10,10,11,11,12,12,13,13,14,14],"right_children":[2,4,6,8,10,12,14,16,-1,18,20,22,24,26,28,-1,-1,-1,-1,-1,-1,-1,-1,-1,-1,-1,-1,-1,-1],"split_conditions":[6.81E0,-3.123E1,2.244E1,-9.01E0,-2.4E-1,1.067E1,1.34E0,1.02412926E2,1.6447579E0,1.69007E5,-7.5E-1,-1.015E1,2.967E1,4.425E1,4E0,-1.6965127E-1,1.222043E0,-5.023398E-1,1.686721E-1,2.1539365E-1,-1.886421E-1,1.6934081E0,6.268353E-1,1.4783427E-1,-7.525668E-1,6.294493E-1,-3.1269354E-1,2.2579558E0,5.8222073E-1],"split_indices":[0,1,0,0,0,1,7,17,0,39,1,1,1,1,3,0,0,0,0,0,0,0,0,0,0,0,0,0,0],"split_type":[0,0,0,0,0,0,0,0,0,0,0,0,0,0,0,0,0,0,0,0,0,0,0,0,0,0,0,0,0],"sum_hessian":[4.3E2,3.43E2,8.7E1,2E1,3.23E2,6E1,2.7E1,1.2E1,8E0,1.77E2,1.46E2,3.1E1,2.9E1,8E0,1.9E1,8E0,4E0,1.67E2,1E1,5.7E1,8.9E1,6E0,2.5E1,2.3E1,6E0,6E0,2E0,1.3E1,6E0],"tree_param":{"num_deleted":"0","num_feature":"44","num_nodes":"29","size_leaf_vector":"1"}},{"base_weights":[-7.352544E-1,-9.2963085E0,1.47011385E1,2.2265953E1,-1.1652176E1,9.272337E0,4.4399403E1,4.3353294E1,-8.324497E0,-1.7738602E1,-5.9664645E0,4.3359512E1,4.282893E0,7.980836E-1,5.307976E1,-1.340403E-1,1.4432061E0,2.786608E-1,-5.603762E-1,-2.9293966E-1,-6.2724847E-1,-2.0186253E-1,1.4770025E0,1.2668872E-1,1.5433282E0,3.0070025E-1,-1.0365051E-1,2.2479394E-1,-3.8973162E-1,1.1153733E0,2.318947E0],"categories":[],"categories_nodes":[],"categories_segments":[],"categories_sizes":[],"default_left":[0,0,0,0,0,0,0,0,0,0,0,0,0,0,0,0,0,0,0,0,0,0,0,0,0,0,0,0,0,0,0],"id":3,"left_children":[1,3,5,7,9,11,13,15,17,19,21,23,25,27,29,-1,-1,-1,-1,-1,-1,-1,-1,-1,-1,-1,-1,-1,-1,-1,-1],"loss_changes":[5.815131E4,2.1302332E4,2.4900793E4,1.3262322E4,9.030059E3,2.2604482E4,9.041039E3,2.9428066E3,1.8149209E3,3.005746E3,6.138063E3,5.1617227E3,5.2760825E3,5.589384E2,4.827914E3,0E0,0E0,0E0,0E0,0E0,0E0,0E0,0E0,0E0,0E0,0E0,0E0,0E0,0E0,0E0,0E0],"parents":[2147483647,0,0,1,1,2,2,3,3,4,4,5,5,6,6,7,7,8,8,9,9,10,10,11,11,12,12,13,13,14,14],"right_children":[2,4,6,8,10,12,14,16,18,20,22,24,26,28,30,-1,-1,-1,-1,-1,-1,-1,-1,-1,-1,-1,-1,-1,-1,-1,-1],"split_conditions":[8.3713853E-1,-3.123E1,2.275E1,-4.6919394E0,-2.6639345E0,-1.015E1,1.02E0,9E-2,-4.871E1,4.797385E0,1.8859089E1,7.7471966E-1,5.39E0,4.6E1,4.748248E1,-1.340403E-1,1.4432061E0,2.786608E-1,-5.603762E-1,-2.9293966E-1,-6.2724847E-1,-2.0186253E-1,1.4770025E0,1.2668872E-1,1.5433282E0,3.0070025E-1,-1.0365051E-1,2.2479394E-1,-3.8973162E-1,1.1153733E0,2.318947E0],"split_indices":[10,1,0,4,10,1,7,7,1,15,42,13,1,0,10,0,0,0,0,0,0,0,0,0,0,0,0,0,0,0,0],"split_type":[0,0,0,0,0,0,0,0,0,0,0,0,0,0,0,0,0,0,0,0,0,0,0,0,0,0,0,0,0,0,0],"sum_hessian":[4.38E2,2.82E2,1.56E2,1.9E1,2.63E2,1.33E2,2.3E1,1.1E1,8E0,1.26E2,1.37E2,1.6E1,1.17E2,4E0,1.9E1,1E0,1E1,3E0,5E0,3.7E1,8.9E1,1.36E2,1E0,3E0,1.3E1,6.7E1,5E1,3E0,1E0,1.3E1,6E0],"tree_param":{"num_deleted":"0","num_feature":"44","num_nodes":"31","size_leaf_vector":"1"}},{"base_weights":[-2.8936362E-1,-3.3146503E0,4.2175137E1,-1.08392725E1,5.6307025E0,-5.0797496E0,4.5731907E1,1.5746871E1,-1.3181914E1,3.515376E1,2.0144317E0,1.552969E-1,-3.8388565E-1,3.3497547E1,2.3294888E0,-2.2540425E-3,1.1253456E0,1.9056828E-1,-4.225109E-1,1.7252328E0,6.7134917E-1,2.3969425E-2,9.217152E-1,1.1840181E0,-9.69917E-2],"categories":[],"categories_nodes":[],"categories_segments":[],"categories_sizes":[],"default_left":[0,0,0,0,0,0,0,0,0,0,0,0,0,0,0,0,0,0,0,0,0,0,0,0,0],"id":4,"left_children":[1,3,5,7,9,11,13,15,17,19,21,-1,-1,23,-1,-1,-1,-1,-1,-1,-1,-1,-1,-1,-1],"loss_changes":[5.795008E4,2.839871E4,5.274547E3,1.4470111E4,2.0534516E4,3.0366693E2,8.332734E3,6.5456665E3,3.8063516E3,4.7103066E3,6.0122656E3,0E0,0E0,4.951578E3,0E0,0E0,0E0,0E0,0E0,0E0,0E0,0E0,0E0,0E0,0E0],"parents":[2147483647,0,0,1,1,2,2,3,3,4,4,5,5,6,6,7,7,8,8,9,9,10,10,13,13],"right_children":[2,4,6,8,10,12,14,16,18,20,22,-1,-1,24,-1,-1,-1,-1,-1,-1,-1,-1,-1,-1,-1],"split_conditions":[2.2758812E1,1.3E-1,5.72E-2,-3.123E1,-1.015E1,3.664E1,4.9789528E1,-4.36E0,-1.9047619E1,-2.969E1,4.2780747E0,1.552969E-1,-3.8388565E-1,4.133E1,2.3294888E0,-2.2540425E-3,1.1253456E0,1.9056828E-1,-4.225109E-1,1.7252328E0,6.7134917E-1,2.3969425E-2,9.217152E-1,1.1840181E0,-9.69917E-2],"split_indices":[10,2,6,1,1,1,10,2,10,1,41,0,0,1,0,0,0,0,0,0,0,0,0,0,0],"split_type":[0,0,0,0,0,0,0,0,0,0,0,0,0,0,0,0,0,0,0,0,0,0,0,0,0],"sum_hessian":[4.49E2,4.2E2,2.9E1,2.28E2,1.92E2,2E0,2.7E1,1.8E1,2.1E2,2E1,1.72E2,1E0,1E0,2.1E1,6E0,1.1E1,7E0,9E0,2.01E2,6E0,1.4E1,1.66E2,6E0,1.8E1,3E0],"tree_param":{"num_deleted":"0","num_feature":"44","num_nodes":"25","size_leaf_vector":"1"}},{"base_weights":[-2.673778E-1,-4.958603E0,2.3762915E1,-8.969106E0,4.6822305E0,1.8084797E1,5.829439E1,-1.0072128E1,1.1762318E1,3.0128107E0,1.4701008E0,2.3369064E1,-7.201475E0,-3.7812737E-1,6.757249E1,-3.469419E-1,7.324881E-2,-3.048609E-1,1.5977564E0,2.7937932E-2,4.516078E-1,9.99707E-1,4.8073727E-1,-4.9960595E-1,4.759806E-1,2.226773E0,8.8572025E-1],"categories":[],"categories_nodes":[],"categories_segments":[],"categories_sizes":[],"default_left":[0,0,0,0,0,0,0,0,0,0,0,0,0,0,0,0,0,0,0,0,0,0,0,0,0,0,0],"id":5,"left_children":[1,3,5,7,9,11,13,15,17,19,-1,21,23,-1,25,-1,-1,-1,-1,-1,-1,-1,-1,-1,-1,-1,-1],"loss_changes":[5.1072477E4,1.4695874E4,1.3455215E4,6.2468887E3,8.139306E3,8.853557E3,7.429746E3,4.7911406E3,1.32781045E4,2.7178967E3,0E0,3.4139844E3,2.8806484E3,0E0,8.687891E1,0E0,0E0,0E0,0E0,0E0,0E0,0E0,0E0,0E0,0E0,0E0,0E0],"parents":[2147483647,0,0,1,1,2,2,3,3,4,4,5,5,6,6,7,7,8,8,9,9,11,11,12,12,14,14],"right_children":[2,4,6,8,10,12,14,16,18,20,-1,22,24,-1,26,-1,-1,-1,-1,-1,-1,-1,-1,-1,-1,-1,-1],"split_conditions":[8.64672E0,3.2856333E-1,4.748248E1,6.605228E1,5E0,2.493086E1,-5.9952538E1,2.679466E0,4.7516486E-1,7.80933E1,1.4701008E0,1.0095461E2,2.259056E-1,-3.7812737E-1,5.658E3,-3.469419E-1,7.324881E-2,-3.048609E-1,1.5977564E0,2.7937932E-2,4.516078E-1,9.99707E-1,4.8073727E-1,-4.9960595E-1,4.759806E-1,2.226773E0,8.8572025E-1],"split_indices":[10,10,10,18,13,5,5,21,13,6,0,40,21,0,11,0,0,0,0,0,0,0,0,0,0,0,0],"split_type":[0,0,0,0,0,0,0,0,0,0,0,0,0,0,0,0,0,0,0,0,0,0,0,0,0,0,0],"sum_hessian":[4.51E2,3.78E2,7.3E1,2.67E2,1.11E2,6.4E1,9E0,2.54E2,1.3E1,1.08E2,3E0,5.3E1,1.1E1,1E0,8E0,2.27E2,2.7E1,9E0,4E0,9.3E1,1.5E1,2.1E1,3.2E1,8E0,3E0,6E0,2E0],"tree_param":{"num_deleted":"0","num_feature":"44","num_nodes":"27","size_leaf_vector":"1"}},{"base_weights":[1.6902241E-1,-5.3209004E0,2.3564539E1,2.8537313E1,-7.62274E0,1.738429E1,5.322404E1,-1.0741331E1,4.004479E1,-1.4465531E1,-1.5401483E0,5.1719234E1,1.2203358E1,5.327827E0,1.974069E0,-2.3872146E-2,-6.1265033E-1,-1.3770026E-1,1.3773304E0,-7.661395E-1,-3.7745655E-1,2.2165656E-1,-1.7316948E-1,6.7413837E-1,1.8779399E0,4.7373247E-1,-1.8577045E-1,6.998442E-1,-2.534497E-1],"categories":[],"categories_nodes":[],"categories_segments":[],"categories_sizes":[],"default_left":[0,0,0,0,0,0,0,0,0,0,0,0,0,0,0,0,0,0,0,0,0,0,0,0,0,0,0,0,0],"id":6,"left_children":[1,3,5,7,9,11,13,15,17,19,21,23,25,27,-1,-1,-1,-1,-1,-1,-1,-1,-1,-1,-1,-1,-1,-1,-1],"loss_changes":[5.676724E4,2.8118678E4,1.4472195E4,1.082609E4,1.3962682E4,1.1998832E4,8.0837266E3,5.6141046E2,4.9238086E3,2.9740234E3,6.806658E3,1.4569766E3,4.255704E3,1.1889839E3,0E0,0E0,0E0,0E0,0E0,0E0,0E0,0E0,0E0,0E0,0E0,0E0,0E0,0E0,0E0],"parents":[2147483647,0,0,1,1,2,2,3,3,4,4,5,5,6,6,7,7,8,8,9,9,10,10,11,11,12,12,13,13],"right_children":[2,4,6,8,10,12,14,16,18,20,22,24,26,28,-1,-1,-1,-1,-1,-1,-1,-1,-1,-1,-1,-1,-1,-1,-1],"split_conditions":[7.73331E0,-2.969E1,4.191617E1,-2.466E1,-1.0267301E0,-7.64E0,1.02E0,-5.895E1,1.0404235E2,-2.0143257E1,-1.63E0,7.940606E1,2.967E1,4.425E1,1.974069E0,-2.3872146E-2,-6.1265033E-1,-1.3770026E-1,1.3773304E0,-7.661395E-1,-3.7745655E-1,2.2165656E-1,-1.7316948E-1,6.7413837E-1,1.8779399E0,4.7373247E-1,-1.8577045E-1,6.998442E-1,-2.534497E-1],"split_indices":[10,1,10,0,10,1,7,1,9,5,1,17,1,1,0,0,0,0,0,0,0,0,0,0,0,0,0,0,0],"split_type":[0,0,0,0,0,0,0,0,0,0,0,0,0,0,0,0,0,0,0,0,0,0,0,0,0,0,0,0,0],"sum_hessian":[4.4E2,3.57E2,8.3E1,2.2E1,3.35E2,7E1,1.3E1,5E0,1.7E1,1.57E2,1.78E2,8E0,6.2E1,3E0,1E1,3E0,2E0,2E0,1.5E1,2.1E1,1.36E2,5.7E1,1.21E2,3E0,5E0,5.2E1,1E1,1E0,2E0],"tree_param":{"num_deleted":"0","num_feature":"44","num_nodes":"29","size_leaf_vector":"1"}},{"base_weights":[-5.668117E-1,-3.6185758E0,4.8517967E1,-9.664461E0,6.597363E0,1.4141793E1,6.3010612E1,3.259197E1,-1.077781E1,4.235665E1,2.4927816E0,1.8981632E1,-3.6865368E-1,1.985053E0,7.549613E-1,-2.3335017E-2,1.7344134E0,-3.4774396E-1,4.7988477E-1,2.9936093E-1,1.5695322E0,1.6592431E-1,-2.8293034E-1,2.5648707E-1,7.059287E-1],"categories":[],"categories_nodes":[],"categories_segments":[],"categories_sizes":[],"default_left":[0,0,0,0,0,0,0,0,0,0,0,0,0,0,0,0,0,0,0,0,0,0,0,0,0],"id":7,"left_children":[1,3,5,7,9,11,13,15,17,19,21,23,-1,-1,-1,-1,-1,-1,-1,-1,-1,-1,-1,-1,-1],"loss_changes":[6.653482E4,2.588128E4,1.2062164E4,1.27244E4,2.279161E4,1.3845184E3,4.86E2,5.9364976E3,5.7841113E3,4.638252E3,5.159861E3,1.7849121E2,0E0,0E0,0E0,0E0,0E0,0E0,0E0,0E0,0E0,0E0,0E0,0E0,0E0],"parents":[2147483647,0,0,1,1,2,2,3,3,4,4,5,5,6,6,7,7,8,8,9,9,10,10,11,11],"right_children":[2,4,6,8,10,12,14,16,18,20,22,24,-1,-1,-1,-1,-1,-1,-1,-1,-1,-1,-1,-1,-1],"split_conditions":[2.244E1,2E-1,1.14E0,-5.895E1,-1.015E1,4.759E1,1.27009514E2,2E0,1.1680266E1,1.43E0,1.39E1,3.401E1,-3.6865368E-1,1.985053E0,7.549613E-1,-2.3335017E-2,1.7344134E0,-3.4774396E-1,4.7988477E-1,2.9936093E-1,1.5695322E0,1.6592431E-1,-2.8293034E-1,2.5648707E-1,7.059287E-1],"split_indices":[0,0,7,1,1,0,35,3,42,7,1,0,0,0,0,0,0,0,0,0,0,0,0,0,0],"split_type":[0,0,0,0,0,0,0,0,0,0,0,0,0,0,0,0,0,0,0,0,0,0,0,0,0],"sum_hessian":[4.42E2,4.17E2,2.5E1,2.62E2,1.55E2,8E0,1.7E1,6E0,2.56E2,1.5E1,1.4E2,7E0,1E0,1.5E1,2E0,3E0,3E0,2.49E2,7E0,4E0,1.1E1,1.12E2,2.8E1,3E0,4E0],"tree_param":{"num_deleted":"0","num_feature":"44","num_nodes":"25","size_leaf_vector":"1"}},{"base_weights":[1.3867575E-1,-2.95877E0,4.0497932E1,2.6089115E1,-4.720675E0,1.2608772E1,5.0862873E1,3.170311E0,4.223324E1,-1.1796964E1,3.1755219E0,1.8907883E1,-8.391783E0,6.0247887E1,2.5734987E1,1.4283376E0,-3.5986778E-1,-1.3642408E-1,1.3854468E0,-2.571737E-1,-4.9649602E-1,3.2359564E-1,-3.4915227E-2,9.03588E-2,6.2245345E-1,-1.4506308E-2,-3.631239E-1,1.9088937E0,7.314914E-1,1.1380357E0,1.2155462E-1],"categories":[],"categories_nodes":[],"categories_segments":[],"categories_sizes":[],"default_left":[0,0,0,0,0,0,0,0,0,0,0,0,0,0,0,0,0,0,0,0,0,0,0,0,0,0,0,0,0,0,0],"id":8,"left_children":[1,3,5,7,9,11,13,15,17,19,21,23,25,27,29,-1,-1,-1,-1,-1,-1,-1,-1,-1,-1,-1,-1,-1,-1,-1,-1],"loss_changes":[5.6124574E4,2.1465057E4,8.60891E3,8.746204E3,2.2052516E4,1.4815193E3,3.8735078E3,7.984983E3,2.7958848E3,3.0458887E3,6.1885825E3,1.715664E2,8.222151E1,3.8917188E2,1.9624927E3,0E0,0E0,0E0,0E0,0E0,0E0,0E0,0E0,0E0,0E0,0E0,0E0,0E0,0E0,0E0,0E0],"parents":[2147483647,0,0,1,1,2,2,3,3,4,4,5,5,6,6,7,7,8,8,9,9,10,10,11,11,12,12,13,13,14,14],"right_children":[2,4,6,8,10,12,14,16,18,20,22,24,26,28,30,-1,-1,-1,-1,-1,-1,-1,-1,-1,-1,-1,-1,-1,-1,-1,-1],"split_conditions":[2.176E1,-2.969E1,1.04E0,-1.485E1,1.3E-1,4.425E1,4E0,-9.991E1,9E-2,2.8E-1,-1.49E0,9.32E0,4.6E1,2.079E1,1.0586615E2,1.4283376E0,-3.5986778E-1,-1.3642408E-1,1.3854468E0,-2.571737E-1,-4.9649602E-1,3.2359564E-1,-3.4915227E-2,9.03588E-2,6.2245345E-1,-1.4506308E-2,-3.631239E-1,1.9088937E0,7.314914E-1,1.1380357E0,1.2155462E-1],"split_indices":[0,1,7,0,2,1,3,1,7,1,1,2,0,7,20,0,0,0,0,0,0,0,0,0,0,0,0,0,0,0,0],"split_type":[0,0,0,0,0,0,0,0,0,0,0,0,0,0,0,0,0,0,0,0,0,0,0,0,0,0,0,0,0,0,0],"sum_hessian":[4.47E2,4.16E2,3.1E1,2.3E1,3.93E2,9E0,2.2E1,1E1,1.3E1,2.07E2,1.86E2,7E0,2E0,1.5E1,7E0,2E0,8E0,1E0,1.2E1,1.25E2,8.2E1,6.7E1,1.19E2,1E0,6E0,1E0,1E0,1.3E1,2E0,4E0,3E0],"tree_param":{"num_deleted":"0","num_feature":"44","num_nodes":"31","size_leaf_vector":"1"}},{"base_weights":[-1.6986115E-1,-3.7765527E0,2.4886797E1,2.7812464E1,-6.115745E0,1.9298243E1,1.8374934E0,1.0272924E1,5.6602386E1,-1.416487E1,-2.0326502E0,2.6770897E1,-4.0293794E0,1.0951662E0,-7.873989E-2,6.8150896E-1,1.8670237E0,-4.5576888E-1,2.4692264E-1,2.1675938E-1,-1.9190466E-1,1.1520411E0,4.3150204E-1,-8.488761E-1,2.9699144E-1],"categories":[],"categories_nodes":[],"categories_segments":[],"categories_sizes":[],"default_left":[0,0,0,0,0,0,0,0,0,0,0,0,0,0,0,0,0,0,0,0,0,0,0,0,0],"id":9,"left_children":[1,3,5,7,9,11,-1,13,15,17,19,21,23,-1,-1,-1,-1,-1,-1,-1,-1,-1,-1,-1,-1],"loss_changes":[4.021899E4,2.8914387E4,1.0198113E4,1.3052502E4,1.1901327E4,8.823832E3,0E0,6.1858896E3,4.945664E2,2.932248E3,9.823828E3,4.922408E3,4.674254E3,0E0,0E0,0E0,0E0,0E0,0E0,0E0,0E0,0E0,0E0,0E0,0E0],"parents":[2147483647,0,0,1,1,2,2,3,3,4,4,5,5,7,7,8,8,9,9,10,10,11,11,12,12],"right_children":[2,4,6,8,10,12,-1,14,16,18,20,22,24,-1,-1,-1,-1,-1,-1,-1,-1,-1,-1,-1,-1],"split_conditions":[1.1036877E1,-2.969E1,5.058E1,-9.01E0,-2.6639345E0,3.003E1,1.8374934E0,-7.471E1,1.5430107E2,1.2000618E1,-1.63E0,3.51803E-1,9.2E0,1.0951662E0,-7.873989E-2,6.8150896E-1,1.8670237E0,-4.5576888E-1,2.4692264E-1,2.1675938E-1,-1.9190466E-1,1.1520411E0,4.3150204E-1,-8.488761E-1,2.9699144E-1],"split_indices":[10,1,0,0,10,1,0,1,9,43,1,43,2,0,0,0,0,0,0,0,0,0,0,0,0],"split_type":[0,0,0,0,0,0,0,0,0,0,0,0,0,0,0,0,0,0,0,0,0,0,0,0,0],"sum_hessian":[4.43E2,3.88E2,5.5E1,2.6E1,3.62E2,4.9E1,6E0,1.7E1,9E0,1.21E2,2.41E2,3.7E1,1.2E1,5E0,1.2E1,2E0,7E0,1.16E2,5E0,7.7E1,1.64E2,1.8E1,1.9E1,4E0,8E0],"tree_param":{"num_deleted":"0","num_feature":"44","num_nodes":"25","size_leaf_vector":"1"}},{"base_weights":[2.8054067E-1,-2.3180044E0,4.1558144E1,3.1601437E1,-4.2291327E0,1.7483633E0,4.6461517E1,-9.571171E0,4.3570004E1,-1.0403027E1,3.6929393E0,3.2676083E-1,-3.8523945E-1,4.894209E1,-1.5887381E-1,-4.878017E-1,7.6132044E-2,1.4599996E0,5.593662E-2,-3.3963132E-1,2.6458797E-1,4.120673E-1,-4.844991E-2,1.6101551E0,6.3541895E-1],"categories":[],"categories_nodes":[],"categories_segments":[],"categories_sizes":[],"default_left":[0,0,0,0,0,0,0,0,0,0,0,0,0,0,0,0,0,0,0,0,0,0,0,0,0],"id":10,"left_children":[1,3,5,7,9,11,13,15,17,19,21,-1,-1,23,-1,-1,-1,-1,-1,-1,-1,-1,-1,-1,-1],"loss_changes":[4.8900414E4,2.7943316E4,5.1892266E3,1.1750889E4,1.9944799E4,6.7348047E2,3.3404883E3,5.272343E2,3.7353008E3,4.1409453E3,9.563899E3,0E0,0E0,1.883207E3,0E0,0E0,0E0,0E0,0E0,0E0,0E0,0E0,0E0,0E0,0E0],"parents":[2147483647,0,0,1,1,2,2,3,3,4,4,5,5,6,6,7,7,8,8,9,9,10,10,13,13],"right_children":[2,4,6,8,10,12,14,16,18,20,22,-1,-1,24,-1,-1,-1,-1,-1,-1,-1,-1,-1,-1,-1],"split_conditions":[2.5201939E1,-2.969E1,6.3E-1,-2.466E1,2.6E-1,3.75E1,1.2984265E2,-1.316E1,5.0114E4,1.3334186E2,-7.5E-1,3.2676083E-1,-3.8523945E-1,3.3488173E0,-1.5887381E-1,-4.878017E-1,7.6132044E-2,1.4599996E0,5.593662E-2,-3.3963132E-1,2.6458797E-1,4.120673E-1,-4.844991E-2,1.6101551E0,6.3541895E-1],"split_indices":[10,1,7,0,2,0,30,2,39,25,1,0,0,22,0,0,0,0,0,0,0,0,0,0,0],"split_type":[0,0,0,0,0,0,0,0,0,0,0,0,0,0,0,0,0,0,0,0,0,0,0,0,0],"sum_hessian":[4.54E2,4.28E2,2.6E1,2.2E1,4.06E2,3E0,2.3E1,5E0,1.7E1,2.28E2,1.78E2,2E0,1E0,2.2E1,1E0,3E0,2E0,1.5E1,2E0,2.18E2,1E1,6.1E1,1.17E2,1.8E1,4E0],"tree_param":{"num_deleted":"0","num_feature":"44","num_nodes":"25","size_leaf_vector":"1"}},{"base_weights":[3.36178E-1,-4.4924035E0,2.2671932E1,2.5038923E1,-6.4715347E0,1.7265648E1,4.9616123E1,1.0276305E1,1.4876691E0,-1.3151125E1,-6.328536E-1,5.2301655E1,1.2739482E1,-3.7946084E-1,1.6927933E0,1.2494307E0,-1.4752875E-1,-2.1663205E-1,-5.082019E-1,2.0166908E-1,-1.3586344E-1,3.7293574E-1,1.7062459E0,5.0183743E-1,-1.7468175E-1],"categories":[],"categories_nodes":[],"categories_segments":[],"categories_sizes":[],"default_left":[0,0,0,0,0,0,0,0,0,0,0,0,0,0,0,0,0,0,0,0,0,0,0,0,0],"id":11,"left_children":[1,3,5,7,9,11,13,15,-1,17,19,21,23,-1,-1,-1,-1,-1,-1,-1,-1,-1,-1,-1,-1],"loss_changes":[4.5506707E4,2.0442934E4,1.0068445E4,7.463715E3,1.2705676E4,9.482746E3,5.802244E3,7.3546274E3,0E0,3.2929043E3,5.045097E3,5.693301E2,4.391382E3,0E0,0E0,0E0,0E0,0E0,0E0,0E0,0E0,0E0,0E0,0E0,0E0],"parents":[2147483647,0,0,1,1,2,2,3,3,4,4,5,5,6,6,7,7,9,9,10,10,11,11,12,12],"right_children":[2,4,6,8,10,12,14,16,-1,18,20,22,24,-1,-1,-1,-1,-1,-1,-1,-1,-1,-1,-1,-1],"split_conditions":[8.64672E0,-2.969E1,4.748248E1,-3.36E0,-1.422713E0,-1.015E1,4.1E-3,-7.471E1,1.4876691E0,-5.63E0,-7.5E-1,2E0,3.003E1,-3.7946084E-1,1.6927933E0,1.2494307E0,-1.4752875E-1,-2.1663205E-1,-5.082019E-1,2.0166908E-1,-1.3586344E-1,3.7293574E-1,1.7062459E0,5.0183743E-1,-1.7468175E-1],"split_indices":[10,1,10,2,10,1,6,1,0,1,1,3,1,0,0,0,0,0,0,0,0,0,0,0,0],"split_type":[0,0,0,0,0,0,0,0,0,0,0,0,0,0,0,0,0,0,0,0,0,0,0,0,0],"sum_hessian":[4.2E2,3.46E2,7.4E1,2.1E1,3.25E2,6.3E1,1.1E1,1.4E1,7E0,1.51E2,1.74E2,6E0,5.7E1,1E0,1E1,4E0,1E1,6E1,9.1E1,6E1,1.14E2,1E0,5E0,4.7E1,1E1],"tree_param":{"num_deleted":"0","num_feature":"44","num_nodes":"25","size_leaf_vector":"1"}},{"base_weights":[2.7161616E-1,-3.3215694E0,2.8864897E1,-7.536734E0,6.8237085E0,4.3470257E1,1.5354224E1,-1.2858694E1,-1.3724947E0,3.068364E0,2.0934874E1,4.7304276E1,-6.131729E-1,1.946703E1,-1.3161161E1,-4.340122E-1,-1.0465501E-1,-6.887467E-2,2.9534057E-1,1.5773985E0,4.151654E-2,-2.1646848E-1,8.6168003E-1,-1.6646129E-1,1.5860103E0,1.6184491E-1,9.287786E-1,-6.8872875E-1,-6.729391E-2],"categories":[],"categories_nodes":[],"categories_segments":[],"categories_sizes":[],"default_left":[0,0,0,0,0,0,0,0,0,0,0,0,0,0,0,0,0,0,0,0,0,0,0,0,0,0,0,0,0],"id":12,"left_children":[1,3,5,7,9,11,13,15,17,19,21,23,-1,25,27,-1,-1,-1,-1,-1,-1,-1,-1,-1,-1,-1,-1,-1,-1],"loss_changes":[4.509642E4,1.6729395E4,9.001629E3,9.03676E3,6.0298774E3,6.602543E3,3.4227207E3,2.1800156E3,1.3586716E3,7.6001494E3,5.4687764E3,6.761496E3,0E0,3.714292E3,3.7633545E2,0E0,0E0,0E0,0E0,0E0,0E0,0E0,0E0,0E0,0E0,0E0,0E0,0E0,0E0],"parents":[2147483647,0,0,1,1,2,2,3,3,4,4,5,5,6,6,7,7,8,8,9,9,10,10,11,11,13,13,14,14],"right_children":[2,4,6,8,10,12,14,16,18,20,22,24,-1,26,28,-1,-1,-1,-1,-1,-1,-1,-1,-1,-1,-1,-1,-1,-1],"split_conditions":[1.3E1,1.2751101E2,4E0,-3.0964848E-1,1.1764759E1,1.08438545E2,1.5262431E2,5.4172E4,4.1323994E1,-1.112E1,9.846637E0,5.72E-2,-6.131729E-1,1.0541475E2,8.39E0,-4.340122E-1,-1.0465501E-1,-6.887467E-2,2.9534057E-1,1.5773985E0,4.151654E-2,-2.1646848E-1,8.6168003E-1,-1.6646129E-1,1.5860103E0,1.6184491E-1,9.287786E-1,-6.8872875E-1,-6.729391E-2],"split_indices":[0,9,3,10,5,40,30,39,18,2,15,6,0,30,2,0,0,0,0,0,0,0,0,0,0,0,0,0,0],"split_type":[0,0,0,0,0,0,0,0,0,0,0,0,0,0,0,0,0,0,0,0,0,0,0,0,0,0,0,0,0],"sum_hessian":[4.37E2,3.89E2,4.8E1,2.75E2,1.14E2,2.2E1,2.6E1,1.47E2,1.28E2,9.1E1,2.3E1,2.1E1,1E0,2.3E1,3E0,1.25E2,2.2E1,1.19E2,9E0,2E0,8.9E1,5E0,1.8E1,2E0,1.9E1,1.1E1,1.2E1,1E0,2E0],"tree_param":{"num_deleted":"0","num_feature":"44","num_nodes":"29","size_leaf_vector":"1"}},{"base_weights":[-3.6900032E-1,-3.0980062E0,3.4767853E1,2.5623495E1,-4.923054E0,1.7635018E0,2.3858818E1,-1.2808519E1,3.3950325E1,-1.0225762E1,1.4937929E0,1.48714E1,1.8849362E0,-4.5729938E-1,-4.604016E-2,1.1458763E0,-8.5193425E-2,-3.3530673E-1,2.860219E-1,7.728638E-2,-7.270136E-1,-5.8653034E-2,6.666722E-1],"categories":[],"categories_nodes":[],"categories_segments":[],"categories_sizes":[],"default_left":[0,0,0,0,0,0,0,0,0,0,0,0,0,0,0,0,0,0,0,0,0,0,0],"id":13,"left_children":[1,3,5,7,9,-1,11,13,15,17,19,21,-1,-1,-1,-1,-1,-1,-1,-1,-1,-1,-1],"loss_changes":[4.1243953E4,2.1040975E4,6.719078E3,8.115256E3,1.2809301E4,0E0,7.121619E3,1.13854004E2,3.2323574E3,3.9781582E3,4.824447E3,2.5172817E3,0E0,0E0,0E0,0E0,0E0,0E0,0E0,0E0,0E0,0E0,0E0],"parents":[2147483647,0,0,1,1,2,2,3,3,4,4,6,6,7,7,8,8,9,9,10,10,11,11],"right_children":[2,4,6,8,10,-1,12,14,16,18,20,22,-1,-1,-1,-1,-1,-1,-1,-1,-1,-1,-1],"split_conditions":[9.32E0,-2.969E1,1.038E1,1.0404235E2,1.3E-1,1.7635018E0,2.833E1,2E0,1.1131829E1,1.3746335E2,2.967E1,1.4578032E0,1.8849362E0,-4.5729938E-1,-4.604016E-2,1.1458763E0,-8.5193425E-2,-3.3530673E-1,2.860219E-1,7.728638E-2,-7.270136E-1,-5.8653034E-2,6.666722E-1],"split_indices":[2,1,1,9,2,0,2,3,32,25,1,5,0,0,0,0,0,0,0,0,0,0,0],"split_type":[0,0,0,0,0,0,0,0,0,0,0,0,0,0,0,0,0,0,0,0,0,0,0],"sum_hessian":[4.28E2,3.98E2,3E1,2.3E1,3.75E2,8E0,2.2E1,4E0,1.9E1,2.05E2,1.7E2,1.9E1,3E0,3E0,1E0,1.7E1,2E0,1.96E2,9E0,1.64E2,6E0,6E0,1.3E1],"tree_param":{"num_deleted":"0","num_feature":"44","num_nodes":"23","size_leaf_vector":"1"}},{"base_weights":[7.349714E-2,-3.7565408E0,2.4505232E1,3.0342665E1,-6.315448E0,1.5858439E1,4.1419254E1,1.3425792E1,4.89602E1,-1.4268542E1,-2.2768629E0,1.2990388E1,1.4070283E0,4.8598667E1,-1.3070515E1,9.907057E-1,9.737134E-3,8.326915E-1,1.6827769E0,-4.6474522E-1,2.0963526E-1,-9.758786E-2,7.5646734E-1,4.785354E-1,-2.9223222E-1,1.5057377E0,3.4675878E-1,7.9319514E-2,-6.674927E-1],"categories":[],"categories_nodes":[],"categories_segments":[],"categories_sizes":[],"default_left":[0,0,0,0,0,0,0,0,0,0,0,0,0,0,0,0,0,0,0,0,0,0,0,0,0,0,0,0,0],"id":14,"left_children":[1,3,5,7,9,11,13,15,17,19,21,23,-1,25,27,-1,-1,-1,-1,-1,-1,-1,-1,-1,-1,-1,-1,-1,-1],"loss_changes":[4.0048355E4,3.2476604E4,7.8257734E3,7.531383E3,1.1048651E4,2.951998E3,8.0680957E3,3.840595E3,2.5787305E2,3.1237656E3,6.253943E3,2.7129E3,0E0,4.226797E2,4.9156952E2,0E0,0E0,0E0,0E0,0E0,0E0,0E0,0E0,0E0,0E0,0E0,0E0,0E0,0E0],"parents":[2147483647,0,0,1,1,2,2,3,3,4,4,5,5,6,6,7,7,8,8,9,9,10,10,11,11,13,13,14,14],"right_children":[2,4,6,8,10,12,14,16,18,20,22,24,-1,26,28,-1,-1,-1,-1,-1,-1,-1,-1,-1,-1,-1,-1,-1,-1],"split_conditions":[1.1036877E1,-2.969E1,1.5808974E2,-8.877988E0,-2.6639345E0,7.25253E5,4.2835E4,-7.471E1,1.5808974E2,9.53994E0,5.291005E0,4.425E1,1.4070283E0,9.751471E-2,1.342E1,9.907057E-1,9.737134E-3,8.326915E-1,1.6827769E0,-4.6474522E-1,2.0963526E-1,-9.758786E-2,7.5646734E-1,4.785354E-1,-2.9223222E-1,1.5057377E0,3.4675878E-1,7.9319514E-2,-6.674927E-1],"split_indices":[10,1,9,10,10,19,19,1,9,22,13,1,0,23,1,0,0,0,0,0,0,0,0,0,0,0,0,0,0],"split_type":[0,0,0,0,0,0,0,0,0,0,0,0,0,0,0,0,0,0,0,0,0,0,0,0,0,0,0,0,0],"sum_hessian":[4.26E2,3.69E2,5.7E1,2.5E1,3.44E2,3.9E1,1.8E1,1.4E1,1.1E1,1.15E2,2.29E2,3.7E1,2E0,1.6E1,2E0,5E0,9E0,4E0,7E0,1.09E2,6E0,2.22E2,7E0,3.3E1,4E0,1.5E1,1E0,1E0,1E0],"tree_param":{"num_deleted":"0","num_feature":"44","num_nodes":"29","size_leaf_vector":"1"}},{"base_weights":[1.958202E-1,-4.5320926E0,1.9105246E1,1.8971687E1,-5.930121E0,1.1384532E1,3.4420338E1,-1.3782934E-2,3.7958534E1,-1.20590315E1,-1.0804961E0,3.7366314E1,6.0668383E0,7.825867E0,4.2526493E1,-3.1236327E-1,6.2358946E-1,1.3891668E0,4.1584814E-1,-4.009772E-1,2.83945E-1,1.8123317E-1,-1.5602244E-1,5.3713405E-1,1.420704E0,2.8988105E-1,-6.7537767E-1,4.582651E-1,-2.9046077E-1,1.5463349E0,6.0905766E-1],"categories":[],"categories_nodes":[],"categories_segments":[],"categories_sizes":[],"default_left":[0,0,0,0,0,0,0,0,0,0,0,0,0,0,0,0,0,0,0,0,0,0,0,0,0,0,0,0,0,0,0],"id":15,"left_children":[1,3,5,7,9,11,13,15,17,19,21,23,25,27,29,-1,-1,-1,-1,-1,-1,-1,-1,-1,-1,-1,-1,-1,-1,-1,-1],"loss_changes":[3.9334117E4,1.1678857E4,1.00135625E4,7.2100063E3,9.884699E3,8.063095E3,5.9189844E3,2.5955776E3,1.3695088E3,4.2614727E3,5.5185205E3,1.0964336E3,5.4586855E3,1.1913171E3,3.3628086E3,0E0,0E0,0E0,0E0,0E0,0E0,0E0,0E0,0E0,0E0,0E0,0E0,0E0,0E0,0E0,0E0],"parents":[2147483647,0,0,1,1,2,2,3,3,4,4,5,5,6,6,7,7,8,8,9,9,10,10,11,11,12,12,13,13,14,14],"right_children":[2,4,6,8,10,12,14,16,18,20,22,24,26,28,30,-1,-1,-1,-1,-1,-1,-1,-1,-1,-1,-1,-1,-1,-1,-1,-1],"split_conditions":[7.04E0,-3.123E1,2.275E1,-1.304E1,-2.3E-1,-7.64E0,1.04E0,2.3868673E0,3.41203E5,1.75808E5,-7.5E-1,7.940606E1,2.967E1,4.425E1,4E0,-3.1236327E-1,6.2358946E-1,1.3891668E0,4.1584814E-1,-4.009772E-1,2.83945E-1,1.8123317E-1,-1.5602244E-1,5.3713405E-1,1.420704E0,2.8988105E-1,-6.7537767E-1,4.582651E-1,-2.9046077E-1,1.5463349E0,6.0905766E-1],"split_indices":[0,1,0,0,2,1,7,21,34,39,1,17,1,1,3,0,0,0,0,0,0,0,0,0,0,0,0,0,0,0,0],"split_type":[0,0,0,0,0,0,0,0,0,0,0,0,0,0,0,0,0,0,0,0,0,0,0,0,0,0,0,0,0,0,0],"sum_hessian":[4.38E2,3.51E2,8.7E1,1.9E1,3.32E2,5.9E1,2.8E1,1E1,9E0,1.46E2,1.86E2,9E0,5E1,7E0,2.1E1,7E0,3E0,6E0,3E0,1.38E2,8E0,6.8E1,1.18E2,4E0,5E0,4.5E1,5E0,5E0,2E0,1.4E1,7E0],"tree_param":{"num_deleted":"0","num_feature":"44","num_nodes":"31","size_leaf_vector":"1"}},{"base_weights":[2.778296E-1,-2.3929543E0,3.2318554E1,2.2668953E1,-4.276414E0,2.0431059E1,1.5128537E0,-1.5369831E0,3.9406597E1,-1.1498053E1,-6.325939E-1,2.8072111E1,-9.634727E0,-4.5018768E-1,6.0963744E-1,7.3054695E-1,1.8131915E0,-8.662184E-2,-4.502894E-1,2.1948332E-1,-1.0931952E-1,1.0522175E0,2.816944E-1,-3.2863948E-1,-6.532553E-2],"categories":[],"categories_nodes":[],"categories_segments":[],"categories_sizes":[],"default_left":[0,0,0,0,0,0,0,0,0,0,0,0,0,0,0,0,0,0,0,0,0,0,0,0,0],"id":16,"left_children":[1,3,5,7,9,11,-1,13,15,17,19,21,23,-1,-1,-1,-1,-1,-1,-1,-1,-1,-1,-1,-1],"loss_changes":[3.5590484E4,1.8222928E4,5.8586953E3,1.0999627E4,9.413263E3,5.094885E3,0E0,3.83792E3,3.594666E3,3.5851182E3,5.747519E3,1.8944297E3,2.5360748E1,0E0,0E0,0E0,0E0,0E0,0E0,0E0,0E0,0E0,0E0,0E0,0E0],"parents":[2147483647,0,0,1,1,2,2,3,3,4,4,5,5,7,7,8,8,9,9,10,10,11,11,12,12],"right_children":[2,4,6,8,10,12,-1,14,16,18,20,22,24,-1,-1,-1,-1,-1,-1,-1,-1,-1,-1,-1,-1],"split_conditions":[2.2758812E1,-2.969E1,1.5430107E2,-1.304E1,-2.6639345E0,4.425E1,1.5128537E0,5.04293E1,4.0798694E-1,4.797385E0,-1.63E0,9.072311E0,5.6153164E0,-4.5018768E-1,6.0963744E-1,7.3054695E-1,1.8131915E0,-8.662184E-2,-4.502894E-1,2.1948332E-1,-1.0931952E-1,1.0522175E0,2.816944E-1,-3.2863948E-1,-6.532553E-2],"split_indices":[10,1,9,0,10,1,0,6,42,15,1,4,4,0,0,0,0,0,0,0,0,0,0,0,0],"split_type":[0,0,0,0,0,0,0,0,0,0,0,0,0,0,0,0,0,0,0,0,0,0,0,0,0],"sum_hessian":[4.14E2,3.83E2,3.1E1,2.6E1,3.57E2,2E1,1.1E1,1.1E1,1.5E1,1.19E2,2.38E2,1.6E1,4E0,7E0,4E0,1E1,5E0,3.5E1,8.4E1,6.5E1,1.73E2,1.1E1,5E0,3E0,1E0],"tree_param":{"num_deleted":"0","num_feature":"44","num_nodes":"25","size_leaf_vector":"1"}},{"base_weights":[2.922037E-1,-3.6244829E0,1.7863333E1,2.0883736E1,-5.094392E0,4.6009777E1,1.35252495E1,6.740393E-1,4.5509583E1,-8.581672E0,9.5006E-1,4.88949E1,3.0065477E-1,5.517079E0,2.7398945E1,-4.121082E-1,7.07904E-1,1.7028083E0,5.1768446E-1,5.124794E-1,-2.74888E-1,-2.257225E-2,8.708E-1,1.6516234E0,5.467531E-1,2.5916407E-1,-6.3553405E-1,1.0106311E-1,9.9714154E-1],"categories":[],"categories_nodes":[],"categories_segments":[],"categories_sizes":[],"default_left":[0,0,0,0,0,0,0,0,0,0,0,0,0,0,0,0,0,0,0,0,0,0,0,0,0,0,0,0,0],"id":17,"left_children":[1,3,5,7,9,11,13,15,17,19,21,23,-1,25,27,-1,-1,-1,-1,-1,-1,-1,-1,-1,-1,-1,-1,-1,-1],"loss_changes":[2.9451143E4,1.2715088E4,8.901633E3,9.922944E3,6.985201E3,5.4827734E2,7.5149385E3,4.2882207E3,1.8813711E3,3.2892412E3,5.8533833E3,6.9675E2,0E0,3.9339766E3,3.3958984E3,0E0,0E0,0E0,0E0,0E0,0E0,0E0,0E0,0E0,0E0,0E0,0E0,0E0,0E0],"parents":[2147483647,0,0,1,1,2,2,3,3,4,4,5,5,6,6,7,7,8,8,9,9,10,10,11,11,13,13,14,14],"right_children":[2,4,6,8,10,12,14,16,18,20,22,24,-1,26,28,-1,-1,-1,-1,-1,-1,-1,-1,-1,-1,-1,-1,-1,-1],"split_conditions":[7.97E0,-2.969E1,-1.015E1,5.04293E1,2.1E-1,5.0114E4,2.275E1,-1.091E1,1.84E3,-2.131E1,3.0804468E1,3.757632E0,3.0065477E-1,2.967E1,9.40757E1,-4.121082E-1,7.07904E-1,1.7028083E0,5.1768446E-1,5.124794E-1,-2.74888E-1,-2.257225E-2,8.708E-1,1.6516234E0,5.467531E-1,2.5916407E-1,-6.3553405E-1,1.0106311E-1,9.9714154E-1],"split_indices":[0,1,1,6,2,39,0,0,29,0,5,13,0,1,17,0,0,0,0,0,0,0,0,0,0,0,0,0,0],"split_type":[0,0,0,0,0,0,0,0,0,0,0,0,0,0,0,0,0,0,0,0,0,0,0,0,0,0,0,0,0],"sum_hessian":[4.26E2,3.49E2,7.7E1,1.9E1,3.3E2,9E0,6.8E1,1.1E1,8E0,2.09E2,1.21E2,8E0,1E0,4.4E1,2.4E1,7E0,4E0,5E0,3E0,4E0,2.05E2,1.15E2,6E0,6E0,2E0,4E1,4E0,5E0,1.9E1],"tree_param":{"num_deleted":"0","num_feature":"44","num_nodes":"29","size_leaf_vector":"1"}},{"base_weights":[2.6613525E-1,-5.941568E0,1.0709838E1,-1.0653676E1,-1.437861E-1,6.906496E0,3.1070023E1,-1.7159866E1,-7.66339E0,-2.3797202E0,2.1482225E1,1.2169608E0,1.4661911E1,8.002419E0,4.2811554E1,-2.5703856E-1,-6.478553E-1,3.810184E-1,-2.3917216E-1,-1.4393525E-1,7.1196455E-1,2.2944336E-1,1.4171528E0,-4.4835943E-1,9.420622E-2,5.345372E-1,-3.04928E-2,-3.3810616E-1,4.268805E-1,1.5187737E0,4.1796696E-1],"categories":[],"categories_nodes":[],"categories_segments":[],"categories_sizes":[],"default_left":[0,0,0,0,0,0,0,0,0,0,0,0,0,0,0,0,0,0,0,0,0,0,0,0,0,0,0,0,0,0,0],"id":18,"left_children":[1,3,5,7,9,11,13,15,17,19,21,23,25,27,29,-1,-1,-1,-1,-1,-1,-1,-1,-1,-1,-1,-1,-1,-1,-1,-1],"loss_changes":[2.9043271E4,7.675324E3,1.2717354E4,2.8840781E3,6.192123E3,6.2478657E3,6.6994785E3,1.6441484E3,7.808755E2,7.438298E3,3.9144858E3,2.6269072E3,2.986958E3,1.3604609E3,3.1310566E3,0E0,0E0,0E0,0E0,0E0,0E0,0E0,0E0,0E0,0E0,0E0,0E0,0E0,0E0,0E0,0E0],"parents":[2147483647,0,0,1,1,2,2,3,3,4,4,5,5,6,6,7,7,8,8,9,9,10,10,11,11,12,12,13,13,14,14],"right_children":[2,4,6,8,10,12,14,16,18,20,22,24,26,28,30,-1,-1,-1,-1,-1,-1,-1,-1,-1,-1,-1,-1,-1,-1,-1,-1],"split_conditions":[1.2625633E0,9.995228E1,2.3691557E1,-6.29E0,1.4726094E2,1.2095682E2,1.34E0,2.0648284E0,-1.9047619E1,4.343783E1,1.1060102E2,-2.7856318E1,1.56974E2,-1.1278343E1,4.1335454E0,-2.5703856E-1,-6.478553E-1,3.810184E-1,-2.3917216E-1,-1.4393525E-1,7.1196455E-1,2.2944336E-1,1.4171528E0,-4.4835943E-1,9.420622E-2,5.345372E-1,-3.04928E-2,-3.3810616E-1,4.268805E-1,1.5187737E0,4.1796696E-1],"split_indices":[10,9,10,0,25,9,7,14,10,18,17,18,30,4,36,0,0,0,0,0,0,0,0,0,0,0,0,0,0,0,0],"split_type":[0,0,0,0,0,0,0,0,0,0,0,0,0,0,0,0,0,0,0,0,0,0,0,0,0,0,0,0,0,0,0],"sum_hessian":[4.46E2,2.8E2,1.66E2,1.54E2,1.26E2,1.41E2,2.5E1,4.7E1,1.07E2,1.15E2,1.1E1,8.2E1,5.9E1,9E0,1.6E1,1.7E1,3E1,1E0,1.06E2,1.06E2,9E0,8E0,3E0,8E0,7.4E1,4.9E1,1E1,2E0,7E0,1.2E1,4E0],"tree_param":{"num_deleted":"0","num_feature":"44","num_nodes":"31","size_leaf_vector":"1"}},{"base_weights":[4.4143033E-1,-4.0067077E0,2.0063322E1,-6.325673E0,8.950631E0,1.5466594E1,4.4822563E1,-9.750899E0,-1.583035E0,-2.5470738E0,2.143074E1,1.0735423E1,2.5086123E1,-3.531666E-1,5.1037743E1,-4.419849E-1,-2.0998785E-1,-7.908053E-2,2.9282358E-1,-2.8137806E-1,4.1033167E-1,1.4304032E0,-2.9924113E-2,7.529028E-1,2.0333283E-1,1.2172633E0,1.7724362E-1,1.685432E0,5.5785567E-1],"categories":[],"categories_nodes":[],"categories_segments":[],"categories_sizes":[],"default_left":[0,0,0,0,0,0,0,0,0,0,0,0,0,0,0,0,0,0,0,0,0,0,0,0,0,0,0,0,0],"id":19,"left_children":[1,3,5,7,9,11,13,15,17,19,21,23,25,-1,27,-1,-1,-1,-1,-1,-1,-1,-1,-1,-1,-1,-1,-1,-1],"loss_changes":[3.7785727E4,1.0663428E4,8.411668E3,4.8579463E3,7.803187E3,2.8709922E3,4.821789E3,2.2818613E3,1.5427256E3,3.3429656E3,1.5354444E4,2.5580918E3,6.2954697E3,0E0,7.90791E2,0E0,0E0,0E0,0E0,0E0,0E0,0E0,0E0,0E0,0E0,0E0,0E0,0E0,0E0],"parents":[2147483647,0,0,1,1,2,2,3,3,4,4,5,5,6,6,7,7,8,8,9,9,10,10,11,11,12,12,14,14],"right_children":[2,4,6,8,10,12,14,16,18,20,22,24,26,-1,28,-1,-1,-1,-1,-1,-1,-1,-1,-1,-1,-1,-1,-1,-1],"split_conditions":[7.73331E0,1.7021613E2,4.748248E1,-3.8226956E-1,7.899674E-2,1.6419894E2,4.1E-3,7.2442986E1,1.814411E6,3E-2,1.3190831E2,-1.2069069E1,1.4734999E2,-3.531666E-1,8.9678E4,-4.419849E-1,-2.0998785E-1,-7.908053E-2,2.9282358E-1,-2.8137806E-1,4.1033167E-1,1.4304032E0,-2.9924113E-2,7.529028E-1,2.0333283E-1,1.2172633E0,1.7724362E-1,1.685432E0,5.5785567E-1],"split_indices":[10,9,10,10,21,9,6,9,8,0,35,18,12,0,8,0,0,0,0,0,0,0,0,0,0,0,0,0,0],"split_type":[0,0,0,0,0,0,0,0,0,0,0,0,0,0,0,0,0,0,0,0,0,0,0,0,0,0,0,0,0],"sum_hessian":[4.31E2,3.52E2,7.9E1,2.99E2,5.3E1,6.8E1,1.1E1,1.73E2,1.26E2,2.8E1,2.5E1,4.7E1,2.1E1,1E0,1E1,6E1,1.13E2,1.16E2,1E1,2E1,8E0,1.1E1,1.4E1,9E0,3.8E1,1.1E1,1E1,8E0,2E0],"tree_param":{"num_deleted":"0","num_feature":"44","num_nodes":"29","size_leaf_vector":"1"}},{"base_weights":[8.1579246E-2,-2.4272153E0,2.837294E1,1.9861925E1,-3.9418883E0,7.7740984E0,3.398068E1,6.8086863E0,1.2019871E0,-1.0454313E1,-4.0718377E-1,1.4153604E1,-9.70278E0,4.5754856E1,1.446887E1,9.087979E-1,-1.650298E-1,6.302575E-1,-3.4005624E-1,1.8332765E-1,-1.01339206E-1,5.740069E-1,1.690573E-1,-8.875597E-2,-3.478691E-1,1.6902102E0,8.0410916E-1,-9.175173E-2,7.0844394E-1],"categories":[],"categories_nodes":[],"categories_segments":[],"categories_sizes":[],"default_left":[0,0,0,0,0,0,0,0,0,0,0,0,0,0,0,0,0,0,0,0,0,0,0,0,0,0,0,0,0],"id":20,"left_children":[1,3,5,7,9,11,13,15,-1,17,19,21,23,25,27,-1,-1,-1,-1,-1,-1,-1,-1,-1,-1,-1,-1,-1,-1],"loss_changes":[3.1369818E4,1.3785162E4,3.894293E3,6.5842275E3,8.766172E3,1.1407739E3,5.770576E3,5.0811333E3,0E0,3.9520156E3,4.822895E3,1.8912549E2,3.9916077E0,1.900207E3,1.9958604E3,0E0,0E0,0E0,0E0,0E0,0E0,0E0,0E0,0E0,0E0,0E0,0E0,0E0,0E0],"parents":[2147483647,0,0,1,1,2,2,3,3,4,4,5,5,6,6,7,7,9,9,10,10,11,11,12,12,13,13,14,14],"right_children":[2,4,6,8,10,12,14,16,-1,18,20,22,24,26,28,-1,-1,-1,-1,-1,-1,-1,-1,-1,-1,-1,-1,-1,-1],"split_conditions":[1.8214432E1,-2.969E1,1.04E0,-9.06E0,-2.6639345E0,3.75E1,4E0,-7.471E1,1.2019871E0,-2.131E1,-1.49E0,2.698856E0,4.6E1,1.7826614E2,1.4578032E0,9.087979E-1,-1.650298E-1,6.302575E-1,-3.4005624E-1,1.8332765E-1,-1.01339206E-1,5.740069E-1,1.690573E-1,-8.875597E-2,-3.478691E-1,1.6902102E0,8.0410916E-1,-9.175173E-2,7.0844394E-1],"split_indices":[10,1,7,0,10,0,3,1,0,0,1,4,0,12,5,0,0,0,0,0,0,0,0,0,0,0,0,0,0],"split_type":[0,0,0,0,0,0,0,0,0,0,0,0,0,0,0,0,0,0,0,0,0,0,0,0,0,0,0,0,0],"sum_hessian":[4.4E2,4.05E2,3.5E1,2.5E1,3.8E2,8E0,2.7E1,1.6E1,9E0,1.33E2,2.47E2,6E0,2E0,1.6E1,1.1E1,5E0,1.1E1,3E0,1.3E2,7.7E1,1.7E2,3E0,3E0,1E0,1E0,9E0,7E0,4E0,7E0],"tree_param":{"num_deleted":"0","num_feature":"44","num_nodes":"29","size_leaf_vector":"1"}},{"base_weights":[1.3401093E-1,-3.6099465E0,1.735454E1,3.5246773E1,-4.5713367E0,3.3987236E1,9.176272E0,4.025707E0,1.5055906E0,-1.0153884E1,-8.457232E-1,2.5272516E1,1.5130888E0,-7.208428E-1,2.1990082E1,-4.586454E-2,1.9160463E-1,-3.399259E-1,7.734153E-2,1.898584E-1,-1.403866E-1,5.1799464E-1,1.3270829E0,1.58867E-1,-6.8893594E-1,1.2648033E-1,9.184085E-1],"categories":[],"categories_nodes":[],"categories_segments":[],"categories_sizes":[],"default_left":[0,0,0,0,0,0,0,0,0,0,0,0,0,0,0,0,0,0,0,0,0,0,0,0,0,0,0],"id":21,"left_children":[1,3,5,7,9,11,13,15,-1,17,19,21,-1,23,25,-1,-1,-1,-1,-1,-1,-1,-1,-1,-1,-1,-1],"loss_changes":[2.8882045E4,1.3908307E4,1.0570258E4,3.995831E3,7.4788413E3,2.45242E3,6.990937E3,6.2223763E1,0E0,2.187084E3,5.9982407E3,2.120834E3,0E0,4.404079E3,3.549541E3,0E0,0E0,0E0,0E0,0E0,0E0,0E0,0E0,0E0,0E0,0E0,0E0],"parents":[2147483647,0,0,1,1,2,2,3,3,4,4,5,5,6,6,7,7,9,9,10,10,11,11,13,13,14,14],"right_children":[2,4,6,8,10,12,14,16,-1,18,20,22,-1,24,26,-1,-1,-1,-1,-1,-1,-1,-1,-1,-1,-1,-1],"split_conditions":[8.64672E0,-4.871E1,4.33E0,8.984114E1,-2.6639345E0,1.849E1,2.275E1,-2.942E1,1.5055906E0,1.6153318E1,-7.5E-1,1.10588234E2,1.5130888E0,2.967E1,1.34E0,-4.586454E-2,1.9160463E-1,-3.399259E-1,7.734153E-2,1.898584E-1,-1.403866E-1,5.1799464E-1,1.3270829E0,1.58867E-1,-6.8893594E-1,1.2648033E-1,9.184085E-1],"split_indices":[10,1,1,20,10,0,0,0,0,23,1,25,0,1,7,0,0,0,0,0,0,0,0,0,0,0,0],"split_type":[0,0,0,0,0,0,0,0,0,0,0,0,0,0,0,0,0,0,0,0,0,0,0,0,0,0,0],"sum_hessian":[4.46E2,3.67E2,7.9E1,8E0,3.59E2,2.5E1,5.4E1,3E0,5E0,1.43E2,2.16E2,1.8E1,7E0,3.1E1,2.3E1,1E0,2E0,1.31E2,1.2E1,7.5E1,1.41E2,1.4E1,4E0,2.5E1,6E0,8E0,1.5E1],"tree_param":{"num_deleted":"0","num_feature":"44","num_nodes":"27","size_leaf_vector":"1"}},{"base_weights":[-4.0200728E-1,-2.153929E0,2.8135357E1,2.5903416E1,-3.8244874E0,1.7437322E0,3.8301895E1,6.7852764E0,4.2862938E1,-1.1044728E1,-1.3750286E-2,1.0540511E1,-9.688174E0,4.1241375E1,-1.7503937E-1,1.1758446E0,-1.0848344E-1,3.6608377E-1,1.3362263E0,-3.6744034E-1,1.4941396E-1,2.1493895E-1,-1.0307767E-1,7.983167E-2,3.5535333E-1,-3.2797906E-1,-8.9321844E-2,1.3059849E0,4.8110914E-1],"categories":[],"categories_nodes":[],"categories_segments":[],"categories_sizes":[],"default_left":[0,0,0,0,0,0,0,0,0,0,0,0,0,0,0,0,0,0,0,0,0,0,0,0,0,0,0,0,0],"id":22,"left_children":[1,3,5,7,9,11,13,15,17,19,21,23,25,27,-1,-1,-1,-1,-1,-1,-1,-1,-1,-1,-1,-1,-1,-1,-1],"loss_changes":[2.1608545E4,1.917574E4,6.640996E3,7.1665557E3,1.0592906E4,9.066299E2,2.5759219E3,4.1869854E3,7.3828125E1,2.625621E3,6.2397285E3,1.9877197E1,8.5443115E-1,2.8369727E2,0E0,0E0,0E0,0E0,0E0,0E0,0E0,0E0,0E0,0E0,0E0,0E0,0E0,0E0,0E0],"parents":[2147483647,0,0,1,1,2,2,3,3,4,4,5,5,6,6,7,7,8,8,9,9,10,10,11,11,12,12,13,13],"right_children":[2,4,6,8,10,12,14,16,18,20,22,24,26,28,-1,-1,-1,-1,-1,-1,-1,-1,-1,-1,-1,-1,-1,-1,-1],"split_conditions":[2.2758812E1,-2.969E1,1.34E0,-9.01E0,-2.6639345E0,3.75E1,2.553626E0,-9.991E1,-9.991E1,5.5534916E0,-1.49E0,2E0,-1.1278343E1,2.079E1,-1.7503937E-1,1.1758446E0,-1.0848344E-1,3.6608377E-1,1.3362263E0,-3.6744034E-1,1.4941396E-1,2.1493895E-1,-1.0307767E-1,7.983167E-2,3.5535333E-1,-3.2797906E-1,-8.9321844E-2,1.3059849E0,4.8110914E-1],"split_indices":[10,1,7,0,10,0,31,1,1,42,1,3,4,7,0,0,0,0,0,0,0,0,0,0,0,0,0,0,0],"split_type":[0,0,0,0,0,0,0,0,0,0,0,0,0,0,0,0,0,0,0,0,0,0,0,0,0,0,0,0,0],"sum_hessian":[4.3E2,4.06E2,2.4E1,2.2E1,3.84E2,7E0,1.7E1,1.1E1,1.1E1,1.32E2,2.52E2,4E0,3E0,1.6E1,1E0,2E0,9E0,1E0,1E1,1.23E2,9E0,8.1E1,1.71E2,1E0,3E0,2E0,1E0,1.4E1,2E0],"tree_param":{"num_deleted":"0","num_feature":"44","num_nodes":"29","size_leaf_vector":"1"}},{"base_weights":[-1.0675273E-1,-5.7344584E0,1.0058958E1,2.5900671E1,-6.8438044E0,4.6716232E1,7.3036985E0,5.136384E-1,4.2739754E1,-3.4396324E-1,-9.442021E0,1.5738696E0,4.1717654E-1,4.953724E0,4.3569553E1,-1.642603E-1,1.8994223E-1,1.394394E0,3.605925E-1,-2.850436E-1,2.1579516E-1,1.2302027E0,-3.047613E-1,2.8112662E-1,-3.9218E-3,1.5141728E0,6.696856E-1],"categories":[],"categories_nodes":[],"categories_segments":[],"categories_sizes":[],"default_left":[0,0,0,0,0,0,0,0,0,0,0,0,0,0,0,0,0,0,0,0,0,0,0,0,0,0,0],"id":23,"left_children":[1,3,5,7,9,11,13,15,17,19,21,-1,-1,23,25,-1,-1,-1,-1,-1,-1,-1,-1,-1,-1,-1,-1],"loss_changes":[2.5687598E4,1.0319512E4,1.5818849E4,4.2529907E3,4.7253906E3,1.3443086E3,1.2567744E4,2.0887918E2,1.306914E2,5.6590664E3,7.647787E3,0E0,0E0,3.190382E3,1.9328125E2,0E0,0E0,0E0,0E0,0E0,0E0,0E0,0E0,0E0,0E0,0E0,0E0],"parents":[2147483647,0,0,1,1,2,2,3,3,4,4,5,5,6,6,7,7,8,8,9,9,10,10,13,13,14,14],"right_children":[2,4,6,8,10,12,14,16,18,20,22,-1,-1,24,26,-1,-1,-1,-1,-1,-1,-1,-1,-1,-1,-1,-1],"split_conditions":[1.2625633E0,-4.871E1,-1.366E1,2.22E2,-6.7E0,1.1338469E2,4.748248E1,-2.942E1,-7.28E0,-8.49143E0,-1.82E1,1.5738696E0,4.1717654E-1,5.39E0,5.658E3,-1.642603E-1,1.8994223E-1,1.394394E0,3.605925E-1,-2.850436E-1,2.1579516E-1,1.2302027E0,-3.047613E-1,2.8112662E-1,-3.9218E-3,1.5141728E0,6.696856E-1],"split_indices":[10,1,1,19,1,30,10,0,0,10,0,0,0,1,11,0,0,0,0,0,0,0,0,0,0,0,0],"split_type":[0,0,0,0,0,0,0,0,0,0,0,0,0,0,0,0,0,0,0,0,0,0,0,0,0,0,0],"sum_hessian":[4.47E2,2.88E2,1.59E2,9E0,2.79E2,1E1,1.49E2,4E0,5E0,8E1,1.99E2,8E0,2E0,1.41E2,8E0,2E0,2E0,4E0,1E0,3.6E1,4.4E1,2E0,1.97E2,7.5E1,6.6E1,5E0,3E0],"tree_param":{"num_deleted":"0","num_feature":"44","num_nodes":"27","size_leaf_vector":"1"}},{"base_weights":[5.443224E-2,-2.413781E0,1.8016531E1,1.9965382E1,-4.119253E0,3.4170692E1,1.0927221E1,6.808076E0,3.9680485E1,-8.400305E0,-2.3830864E-1,1.8055893E1,1.3409463E0,-1.8249245E1,1.4783081E1,8.3454823E-1,-1.0237912E-1,4.4418505E-1,1.3068894E0,-2.8546032E-1,2.696279E-1,-3.415987E-2,1.0152817E0,2.4328096E-1,7.792524E-1,-6.131258E-1,-1.4244184E-1,3.301651E-1,1.2392379E0],"categories":[],"categories_nodes":[],"categories_segments":[],"categories_sizes":[],"default_left":[0,0,0,0,0,0,0,0,0,0,0,0,0,0,0,0,0,0,0,0,0,0,0,0,0,0,0,0,0],"id":24,"left_children":[1,3,5,7,9,11,13,15,17,19,21,23,-1,25,27,-1,-1,-1,-1,-1,-1,-1,-1,-1,-1,-1,-1,-1,-1],"loss_changes":[1.981658E4,1.5081888E4,5.810787E3,6.9929873E3,6.078913E3,1.9073164E3,4.6572944E3,3.96024E3,4.1731836E2,3.4590693E3,5.9607373E3,4.195061E2,0E0,5.0683105E1,3.0523745E3,0E0,0E0,0E0,0E0,0E0,0E0,0E0,0E0,0E0,0E0,0E0,0E0,0E0,0E0],"parents":[2147483647,0,0,1,1,2,2,3,3,4,4,5,5,6,6,7,7,8,8,9,9,10,10,11,11,13,13,14,14],"right_children":[2,4,6,8,10,12,14,16,18,20,22,24,-1,26,28,-1,-1,-1,-1,-1,-1,-1,-1,-1,-1,-1,-1,-1,-1],"split_conditions":[1.263E1,-2.969E1,1.038E1,-9.01E0,-6E-2,1.849E1,-1.1278343E1,-7.471E1,5.39E0,1.75808E5,4.6875E0,3.3950617E0,1.3409463E0,3E0,5.058E1,8.3454823E-1,-1.0237912E-1,4.4418505E-1,1.3068894E0,-2.8546032E-1,2.696279E-1,-3.415987E-2,1.0152817E0,2.4328096E-1,7.792524E-1,-6.131258E-1,-1.4244184E-1,3.301651E-1,1.2392379E0],"split_indices":[0,1,1,0,2,0,4,1,7,39,41,32,0,3,0,0,0,0,0,0,0,0,0,0,0,0,0,0,0],"split_type":[0,0,0,0,0,0,0,0,0,0,0,0,0,0,0,0,0,0,0,0,0,0,0,0,0,0,0,0,0],"sum_hessian":[4.45E2,3.92E2,5.3E1,2.7E1,3.65E2,1.5E1,3.8E1,1.7E1,1E1,1.73E2,1.92E2,7E0,8E0,4E0,3.4E1,5E0,1.2E1,2E0,8E0,1.63E2,1E1,1.88E2,4E0,4E0,3E0,3E0,1E0,3.1E1,3E0],"tree_param":{"num_deleted":"0","num_feature":"44","num_nodes":"29","size_leaf_vector":"1"}},{"base_weights":[6.2072796E-1,-1.1694463E0,2.9790466E1,-4.654495E0,5.93347E0,8.098385E0,3.589317E1,-5.2938657E0,2.1493923E1,9.178707E-1,1.3220782E1,5.508658E-1,3.2042247E-1,3.8404415E1,-1.7730744E-1,-3.22099E-1,-9.270866E-2,1.1028363E0,2.5594814E-2,-3.4060266E-2,3.665672E-1,5.0908303E-1,-6.752341E-2,1.7147502E-1,-1.554539E-1,1.3062626E0,7.013004E-1],"categories":[],"categories_nodes":[],"categories_segments":[],"categories_sizes":[],"default_left":[0,0,0,0,0,0,0,0,0,0,0,0,0,0,0,0,0,0,0,0,0,0,0,0,0,0,0],"id":25,"left_children":[1,3,5,7,9,11,13,15,17,19,21,-1,23,25,-1,-1,-1,-1,-1,-1,-1,-1,-1,-1,-1,-1,-1],"loss_changes":[2.348113E4,1.0523315E4,3.151213E3,4.878569E3,5.1048984E3,5.52937E2,2.3265527E3,3.3130234E3,2.1745352E3,1.9629608E3,3.3440508E3,0E0,1.7805199E2,4.4907422E2,0E0,0E0,0E0,0E0,0E0,0E0,0E0,0E0,0E0,0E0,0E0,0E0,0E0],"parents":[2147483647,0,0,1,1,2,2,3,3,4,4,5,5,6,6,7,7,8,8,9,9,10,10,12,12,13,13],"right_children":[2,4,6,8,10,12,14,16,18,20,22,-1,24,26,-1,-1,-1,-1,-1,-1,-1,-1,-1,-1,-1,-1,-1],"split_conditions":[2.3691557E1,1.2625633E0,1.34E0,1.4060661E2,1.2095682E2,1.1685856E2,1.2984265E2,-4.9785986E0,1.3639723E1,5.014674E0,1.56974E2,5.508658E-1,1.4E1,1.1975298E0,-1.7730744E-1,-3.22099E-1,-9.270866E-2,1.1028363E0,2.5594814E-2,-3.4060266E-2,3.665672E-1,5.0908303E-1,-6.752341E-2,1.7147502E-1,-1.554539E-1,1.3062626E0,7.013004E-1],"split_indices":[10,10,7,40,9,12,30,5,37,22,30,0,2,36,0,0,0,0,0,0,0,0,0,0,0,0,0],"split_type":[0,0,0,0,0,0,0,0,0,0,0,0,0,0,0,0,0,0,0,0,0,0,0,0,0,0,0],"sum_hessian":[4.48E2,4.23E2,2.5E1,2.84E2,1.39E2,6E0,1.9E1,2.78E2,6E0,8.3E1,5.6E1,2E0,4E0,1.8E1,1E0,7.9E1,1.99E2,3E0,3E0,7.1E1,1.2E1,4.5E1,1.1E1,2E0,2E0,1.2E1,6E0],"tree_param":{"num_deleted":"0","num_feature":"44","num_nodes":"27","size_leaf_vector":"1"}},{"base_weights":[-3.016657E-1,-3.3996172E0,1.7289808E1,-6.8589144E0,2.1154883E0,2.1094162E1,-3.303769E0,-3.8876295E0,-1.1422394E1,1.8124466E1,-4.8366517E-1,1.410386E1,3.5889908E1,5.2968526E0,-8.401313E-1,-3.8380948E-1,-3.6384363E-2,5.3786355E-1,-3.6909637E-1,8.875877E-1,-2.2164984E-1,-5.8948915E-2,7.366768E-1,4.9523288E-1,-3.3171687E-1,1.6485092E-1,1.1872866E0,7.4658226E-3,4.592965E-1],"categories":[],"categories_nodes":[],"categories_segments":[],"categories_sizes":[],"default_left":[0,0,0,0,0,0,0,0,0,0,0,0,0,0,0,0,0,0,0,0,0,0,0,0,0,0,0,0,0],"id":26,"left_children":[1,3,5,7,9,11,13,15,17,19,21,23,25,27,-1,-1,-1,-1,-1,-1,-1,-1,-1,-1,-1,-1,-1,-1,-1],"loss_changes":[2.365621E4,7.0544355E3,5.162133E3,3.0335781E3,5.958966E3,5.182285E3,2.4851816E3,3.2957383E3,2.521502E3,6.067039E3,4.6475444E3,2.5414365E3,1.687293E3,4.5110126E2,0E0,0E0,0E0,0E0,0E0,0E0,0E0,0E0,0E0,0E0,0E0,0E0,0E0,0E0,0E0],"parents":[2147483647,0,0,1,1,2,2,3,3,4,4,5,5,6,6,7,7,8,8,9,9,10,10,11,11,12,12,13,13],"right_children":[2,4,6,8,10,12,14,16,18,20,22,24,26,28,-1,-1,-1,-1,-1,-1,-1,-1,-1,-1,-1,-1,-1,-1,-1],"split_conditions":[1.1036877E1,1.1421857E2,1.1114613E2,1.36E0,-2.545E1,1.6419894E2,2.008435E1,-8.316283E0,-1.9047619E1,1.2522388E2,1.2426923E1,4.924E1,5.19E0,2.16E1,-8.401313E-1,-3.8380948E-1,-3.6384363E-2,5.3786355E-1,-3.6909637E-1,8.875877E-1,-2.2164984E-1,-5.8948915E-2,7.366768E-1,4.9523288E-1,-3.3171687E-1,1.6485092E-1,1.1872866E0,7.4658226E-3,4.592965E-1],"split_indices":[10,9,40,1,1,9,10,10,10,35,42,1,2,7,0,0,0,0,0,0,0,0,0,0,0,0,0,0,0],"split_type":[0,0,0,0,0,0,0,0,0,0,0,0,0,0,0,0,0,0,0,0,0,0,0,0,0,0,0,0,0],"sum_hessian":[4.32E2,3.68E2,6.4E1,2.26E2,1.42E2,5.4E1,1E1,1.38E2,8.8E1,1.9E1,1.23E2,3.8E1,1.6E1,8E0,2E0,3.1E1,1.07E2,2E0,8.6E1,1.3E1,6E0,1.17E2,6E0,3.5E1,3E0,2E0,1.4E1,6E0,2E0],"tree_param":{"num_deleted":"0","num_feature":"44","num_nodes":"29","size_leaf_vector":"1"}},{"base_weights":[-2.144733E-2,-1.6302545E0,2.8870943E1,1.6877243E1,-2.7630732E0,-6.200762E0,3.2341133E1,3.7548834E-1,3.4722855E1,-9.469517E0,3.476592E-1,6.680245E-2,-3.4583673E-1,1.9711924E1,1.4517932E0,-2.88944E-1,4.5970017E-1,5.9989804E-1,1.1875921E0,1.2982121E-1,-3.1252414E-1,3.6514515E-1,-4.701557E-2,7.403623E-1,-2.0177983E-1],"categories":[],"categories_nodes":[],"categories_segments":[],"categories_sizes":[],"default_left":[0,0,0,0,0,0,0,0,0,0,0,0,0,0,0,0,0,0,0,0,0,0,0,0,0],"id":27,"left_children":[1,3,5,7,9,11,13,15,17,19,21,-1,-1,23,-1,-1,-1,-1,-1,-1,-1,-1,-1,-1,-1],"loss_changes":[2.1150025E4,9.082823E3,3.1214707E3,7.34906E3,8.494107E3,1.6035303E2,3.506002E3,2.241741E3,6.786914E1,1.732248E3,6.335867E3,0E0,0E0,2.0043618E3,0E0,0E0,0E0,0E0,0E0,0E0,0E0,0E0,0E0,0E0,0E0],"parents":[2147483647,0,0,1,1,2,2,3,3,4,4,5,5,6,6,7,7,8,8,9,9,10,10,13,13],"right_children":[2,4,6,8,10,12,14,16,18,20,22,-1,-1,24,-1,-1,-1,-1,-1,-1,-1,-1,-1,-1,-1],"split_conditions":[2.641394E1,-2.969E1,5.72E-2,-9.01E0,-2.6639345E0,3.401E1,4.9789528E1,5.6734E4,1.5808974E2,-1.9047619E1,-7.15E0,6.680245E-2,-3.4583673E-1,4.425E1,1.4517932E0,-2.88944E-1,4.5970017E-1,5.9989804E-1,1.1875921E0,1.2982121E-1,-3.1252414E-1,3.6514515E-1,-4.701557E-2,7.403623E-1,-2.0177983E-1],"split_indices":[10,1,6,0,10,0,10,8,9,10,1,0,0,1,0,0,0,0,0,0,0,0,0,0,0],"split_type":[0,0,0,0,0,0,0,0,0,0,0,0,0,0,0,0,0,0,0,0,0,0,0,0,0],"sum_hessian":[4.53E2,4.3E2,2.3E1,2.4E1,4.06E2,2E0,2.1E1,1.3E1,1.1E1,1.28E2,2.78E2,1E0,1E0,1.3E1,8E0,8E0,5E0,4E0,7E0,8E0,1.2E2,3.8E1,2.4E2,1.1E1,2E0],"tree_param":{"num_deleted":"0","num_feature":"44","num_nodes":"25","size_leaf_vector":"1"}},{"base_weights":[4.659631E-1,-1.5575289E0,2.836013E1,2.13107E1,-3.0091999E0,-6.1077504E0,3.1139519E1,-1.297479E0,3.755208E1,-1.0242762E1,5.765885E-1,6.580042E-2,-3.406492E-1,4.1732357E1,1.4420773E1,-3.729571E-1,6.388722E-1,2.8546357E-1,1.2429568E0,-1.3660939E-1,-4.1190255E-1,2.2944483E-1,-8.577552E-2,1.3409334E0,4.1948807E-1,-1.9774422E-1,5.7847106E-1],"categories":[],"categories_nodes":[],"categories_segments":[],"categories_sizes":[],"default_left":[0,0,0,0,0,0,0,0,0,0,0,0,0,0,0,0,0,0,0,0,0,0,0,0,0,0,0],"id":28,"left_children":[1,3,5,7,9,11,13,15,17,19,21,-1,-1,23,25,-1,-1,-1,-1,-1,-1,-1,-1,-1,-1,-1,-1],"loss_changes":[2.4202043E4,1.3342986E4,2.9683828E3,8.861233E3,9.784541E3,1.5557852E2,4.1798594E3,3.0319338E3,1.1286328E3,2.4174512E3,6.1688354E3,0E0,0E0,6.9161523E2,1.352936E3,0E0,0E0,0E0,0E0,0E0,0E0,0E0,0E0,0E0,0E0,0E0,0E0],"parents":[2147483647,0,0,1,1,2,2,3,3,4,4,5,5,6,6,7,7,8,8,9,9,10,10,13,13,14,14],"right_children":[2,4,6,8,10,12,14,16,18,20,22,-1,-1,24,26,-1,-1,-1,-1,-1,-1,-1,-1,-1,-1,-1,-1],"split_conditions":[2.3691557E1,-2.969E1,5.72E-2,-1.304E1,-2.5313044E0,3.401E1,4E0,9.23825E0,1.2513894E2,-5.63E0,-7.5E-1,6.580042E-2,-3.406492E-1,1.27009514E2,3.34293E1,-3.729571E-1,6.388722E-1,2.8546357E-1,1.2429568E0,-1.3660939E-1,-4.1190255E-1,2.2944483E-1,-8.577552E-2,1.3409334E0,4.1948807E-1,-1.9774422E-1,5.7847106E-1],"split_indices":[10,1,6,0,10,0,3,14,9,1,1,0,0,35,6,0,0,0,0,0,0,0,0,0,0,0,0],"split_type":[0,0,0,0,0,0,0,0,0,0,0,0,0,0,0,0,0,0,0,0,0,0,0,0,0,0,0],"sum_hessian":[4.27E2,3.99E2,2.8E1,2.3E1,3.76E2,2E0,2.6E1,1E1,1.3E1,1.24E2,2.52E2,1E0,1E0,1.5E1,1.1E1,7E0,3E0,2E0,1.1E1,4.8E1,7.6E1,8.2E1,1.7E2,1.3E1,2E0,2E0,9E0],"tree_param":{"num_deleted":"0","num_feature":"44","num_nodes":"27","size_leaf_vector":"1"}},{"base_weights":[2.55197E-1,-2.353969E0,1.8375027E1,1.9195866E1,-3.886776E0,3.3037445E1,1.1684122E1,4.7375507E0,3.8481064E1,-7.797485E0,6.677612E-2,1.8285418E-1,3.837543E1,7.554358E0,1.4089023E0,-3.0200863E-1,6.240127E-1,5.5756634E-1,1.3085607E0,-5.2288685E-2,-3.2656202E-1,1.6109844E-1,-8.775982E-2,1.2476237E0,3.8206527E-1,-5.224116E-1,3.3325437E-1],"categories":[],"categories_nodes":[],"categories_segments":[],"categories_sizes":[],"default_left":[0,0,0,0,0,0,0,0,0,0,0,0,0,0,0,0,0,0,0,0,0,0,0,0,0,0,0],"id":29,"left_children":[1,3,5,7,9,11,13,15,17,19,21,-1,23,25,-1,-1,-1,-1,-1,-1,-1,-1,-1,-1,-1,-1,-1],"loss_changes":[2.1034527E4,1.2923955E4,5.1078574E3,7.0673115E3,5.628394E3,2.210998E3,5.473027E3,4.0142434E3,3.136953E2,3.402374E3,2.9036191E3,0E0,6.2334766E2,3.4768052E3,0E0,0E0,0E0,0E0,0E0,0E0,0E0,0E0,0E0,0E0,0E0,0E0,0E0],"parents":[2147483647,0,0,1,1,2,2,3,3,4,4,5,5,6,6,7,7,8,8,9,9,10,10,12,12,13,13],"right_children":[2,4,6,8,10,12,14,16,18,20,22,-1,24,26,-1,-1,-1,-1,-1,-1,-1,-1,-1,-1,-1,-1,-1],"split_conditions":[1.263E1,-2.969E1,1.038E1,-9.01E0,-2.4E-1,6.21E0,6.689E1,5.04293E1,1.5430107E2,-5.63E0,-6E-1,1.8285418E-1,2.606575E1,-1.1278343E1,1.4089023E0,-3.0200863E-1,6.240127E-1,5.5756634E-1,1.3085607E0,-5.2288685E-2,-3.2656202E-1,1.6109844E-1,-8.775982E-2,1.2476237E0,3.8206527E-1,-5.224116E-1,3.3325437E-1],"split_indices":[0,1,1,0,0,2,0,6,9,1,1,0,4,4,0,0,0,0,0,0,0,0,0,0,0,0,0],"split_type":[0,0,0,0,0,0,0,0,0,0,0,0,0,0,0,0,0,0,0,0,0,0,0,0,0,0,0],"sum_hessian":[4.43E2,3.88E2,5.5E1,2.5E1,3.63E2,1.6E1,3.9E1,1.5E1,1E1,1.82E2,1.81E2,3E0,1.3E1,3.6E1,3E0,8E0,7E0,3E0,7E0,6.2E1,1.2E2,6.5E1,1.16E2,1.1E1,2E0,4E0,3.2E1],"tree_param":{"num_deleted":"0","num_feature":"44","num_nodes":"27","size_leaf_vector":"1"}},{"base_weights":[5.522745E-1,-2.2516315E0,1.828597E1,2.9744495E1,-3.1817E0,2.732855E1,1.0787809E1,2.965703E0,3.941583E1,-5.909688E0,2.0259519E0,4.1380615E0,3.2411022E1,2.036333E1,2.5880015E0,-6.349737E-2,1.609597E-1,2.8051105E-1,1.2712538E0,-1.5900216E-1,-7.816092E-1,1.631977E-2,6.566889E-1,2.6030886E-1,-9.879478E-2,-2.4665101E-1,1.0421227E0,2.4470517E-1,9.4650656E-1,-3.1671757E-1,2.6927316E-1],"categories":[],"categories_nodes":[],"categories_segments":[],"categories_sizes":[],"default_left":[0,0,0,0,0,0,0,0,0,0,0,0,0,0,0,0,0,0,0,0,0,0,0,0,0,0,0,0,0,0,0],"id":30,"left_children":[1,3,5,7,9,11,13,15,17,19,21,23,25,27,29,-1,-1,-1,-1,-1,-1,-1,-1,-1,-1,-1,-1,-1,-1,-1,-1],"loss_changes":[2.2217906E4,1.1581454E4,3.8411484E3,2.731958E3,5.353584E3,3.0482383E3,2.69541E3,6.0138325E1,3.155586E2,2.8950898E3,3.8149243E3,2.3095203E2,2.3652168E3,1.9274927E3,1.7741367E3,0E0,0E0,0E0,0E0,0E0,0E0,0E0,0E0,0E0,0E0,0E0,0E0,0E0,0E0,0E0,0E0],"parents":[2147483647,0,0,1,1,2,2,3,3,4,4,5,5,6,6,7,7,8,8,9,9,10,10,11,11,12,12,13,13,14,14],"right_children":[2,4,6,8,10,12,14,16,18,20,22,24,26,28,30,-1,-1,-1,-1,-1,-1,-1,-1,-1,-1,-1,-1,-1,-1,-1,-1],"split_conditions":[1.1036877E1,-4.871E1,4E0,8.984114E1,1.1421857E2,1.423E1,1.101E1,-2.942E1,-4.9510666E1,2.4374092E1,5.6644608E1,4.55059E1,9E0,1.524551E2,1.8132E4,-6.349737E-2,1.609597E-1,2.8051105E-1,1.2712538E0,-1.5900216E-1,-7.816092E-1,1.631977E-2,6.566889E-1,2.6030886E-1,-9.879478E-2,-2.4665101E-1,1.0421227E0,2.4470517E-1,9.4650656E-1,-3.1671757E-1,2.6927316E-1],"split_indices":[10,1,3,20,9,0,1,0,4,28,18,6,11,9,11,0,0,0,0,0,0,0,0,0,0,0,0,0,0,0,0],"split_type":[0,0,0,0,0,0,0,0,0,0,0,0,0,0,0,0,0,0,0,0,0,0,0,0,0,0,0,0,0,0,0],"sum_hessian":[4.45E2,3.85E2,6E1,1E1,3.75E2,2.6E1,3.4E1,3E0,7E0,2.46E2,1.29E2,5E0,2.1E1,1.5E1,1.9E1,1E0,2E0,1E0,6E0,2.4E2,6E0,1.21E2,8E0,3E0,2E0,1E0,2E1,8E0,7E0,6E0,1.3E1],"tree_param":{"num_deleted":"0","num_feature":"44","num_nodes":"31","size_leaf_vector":"1"}},{"base_weights":[1.11762606E-1,-4.0303683E0,9.194066E0,-5.7007537E0,6.6446977E0,7.278825E0,3.0992914E1,-9.003727E0,-3.2773101E0,2.2142193E1,-8.4503975E0,2.7120442E0,1.2243809E1,-3.433351E-1,3.6381107E1,-4.9015993E-1,-1.7984447E-1,-1.7372982E-1,6.351741E-2,-3.521334E-1,1.0038989E0,3.895772E-1,-3.372997E-1,1.2057349E-1,-4.446691E-1,4.6773553E-1,-4.7176357E-2,3.7295833E-1,1.2244321E0],"categories":[],"categories_nodes":[],"categories_segments":[],"categories_sizes":[],"default_left":[0,0,0,0,0,0,0,0,0,0,0,0,0,0,0,0,0,0,0,0,0,0,0,0,0,0,0,0,0],"id":31,"left_children":[1,3,5,7,9,11,13,15,17,19,21,23,25,-1,27,-1,-1,-1,-1,-1,-1,-1,-1,-1,-1,-1,-1,-1,-1],"loss_changes":[1.6815617E4,5.5121406E3,5.619415E3,2.099708E3,1.001243E4,2.914413E3,2.9316348E3,2.373912E3,2.1140942E3,8.447516E3,1.4631451E3,1.6409601E3,2.8919258E3,0E0,5.5433594E2,0E0,0E0,0E0,0E0,0E0,0E0,0E0,0E0,0E0,0E0,0E0,0E0,0E0,0E0],"parents":[2147483647,0,0,1,1,2,2,3,3,4,4,5,5,6,6,7,7,8,8,9,9,10,10,11,11,12,12,14,14],"right_children":[2,4,6,8,10,12,14,16,18,20,22,24,26,-1,28,-1,-1,-1,-1,-1,-1,-1,-1,-1,-1,-1,-1,-1,-1],"split_conditions":[1.84E0,1.7097981E2,4.748248E1,8.10601E1,-6.664262E0,1.3100424E2,-5.9952538E1,-6.3694267E0,3.9599055E-1,-2.3198349E1,1.7280232E2,2.746E1,1.56974E2,-3.433351E-1,-1.0754912E-1,-4.9015993E-1,-1.7984447E-1,-1.7372982E-1,6.351741E-2,-3.521334E-1,1.0038989E0,3.895772E-1,-3.372997E-1,1.2057349E-1,-4.446691E-1,4.6773553E-1,-4.7176357E-2,3.7295833E-1,1.2244321E0],"split_indices":[0,9,10,9,4,9,5,10,38,5,9,7,30,0,21,0,0,0,0,0,0,0,0,0,0,0,0,0,0],"split_type":[0,0,0,0,0,0,0,0,0,0,0,0,0,0,0,0,0,0,0,0,0,0,0,0,0,0,0,0,0],"sum_hessian":[4.45E2,3.06E2,1.39E2,2.65E2,4.1E1,1.29E2,1E1,1.11E2,1.54E2,2E1,2.1E1,6.8E1,6.1E1,1E0,9E0,3.1E1,8E1,1.05E2,4.9E1,5E0,1.5E1,2E0,1.9E1,6.4E1,4E0,4.9E1,1.2E1,2E0,7E0],"tree_param":{"num_deleted":"0","num_feature":"44","num_nodes":"29","size_leaf_vector":"1"}},{"base_weights":[1.19504765E-1,-1.7260047E0,2.2989016E1,-5.3549433E0,3.4592035E0,3.0176977E1,1.1078427E1,7.6337833E0,-6.0093336E0,2.4948206E0,2.9242468E1,5.414183E0,3.42284E1,1.5831784E1,-4.7629128E0,1.3632464E0,-3.0053598E-1,-2.064264E-1,8.976858E-2,-1.8461253E-2,2.4568745E-1,1.9237259E-1,1.1716316E0,2.9996377E-1,-1.2509468E-1,6.7359793E-1,1.4352725E0,6.7963535E-1,1.9111276E-1,1.3949776E-3,-1.914465E-1],"categories":[],"categories_nodes":[],"categories_segments":[],"categories_sizes":[],"default_left":[0,0,0,0,0,0,0,0,0,0,0,0,0,0,0,0,0,0,0,0,0,0,0,0,0,0,0,0,0,0,0],"id":32,"left_children":[1,3,5,7,9,11,13,15,17,19,21,23,25,27,29,-1,-1,-1,-1,-1,-1,-1,-1,-1,-1,-1,-1,-1,-1,-1,-1],"loss_changes":[1.865248E4,7.714596E3,2.490912E3,2.0943018E3,4.1292197E3,1.8211738E3,1.1295992E3,8.46366E3,1.8250137E3,2.9097783E3,1.0936064E3,2.1744891E2,1.650998E3,5.657561E2,3.1435509E1,0E0,0E0,0E0,0E0,0E0,0E0,0E0,0E0,0E0,0E0,0E0,0E0,0E0,0E0,0E0,0E0],"parents":[2147483647,0,0,1,1,2,2,3,3,4,4,5,5,6,6,7,7,8,8,9,9,10,10,11,11,12,12,13,13,14,14],"right_children":[2,4,6,8,10,12,14,16,18,20,22,24,26,28,30,-1,-1,-1,-1,-1,-1,-1,-1,-1,-1,-1,-1,-1,-1,-1,-1],"split_conditions":[2.176E1,2.2E-1,4E0,-2.015E1,4.6875E0,1.04E0,1.2023262E1,-6.664262E0,7.3170733E0,2.8087878E0,1.1098034E1,3.415E1,1E0,1.2382838E2,2.244E1,1.3632464E0,-3.0053598E-1,-2.064264E-1,8.976858E-2,-1.8461253E-2,2.4568745E-1,1.9237259E-1,1.1716316E0,2.9996377E-1,-1.2509468E-1,6.7359793E-1,1.4352725E0,6.7963535E-1,1.9111276E-1,1.3949776E-3,-1.914465E-1],"split_indices":[0,2,3,0,41,7,15,4,33,18,5,0,39,17,0,0,0,0,0,0,0,0,0,0,0,0,0,0,0,0,0],"split_type":[0,0,0,0,0,0,0,0,0,0,0,0,0,0,0,0,0,0,0,0,0,0,0,0,0,0,0,0,0,0,0],"sum_hessian":[4.4E2,4.08E2,3.2E1,2.4E2,1.68E2,1.9E1,1.3E1,1.1E1,2.29E2,1.63E2,5E0,3E0,1.6E1,1E1,3E0,3E0,8E0,2.09E2,2E1,1.06E2,5.7E1,2E0,3E0,2E0,1E0,1E1,6E0,5E0,5E0,1E0,2E0],"tree_param":{"num_deleted":"0","num_feature":"44","num_nodes":"31","size_leaf_vector":"1"}},{"base_weights":[7.3816264E-1,-1.2151736E0,2.376644E1,1.750364E1,-2.4150584E0,3.1622904E1,9.722965E0,3.2363677E0,3.536777E1,-8.347226E0,6.994945E-1,3.71785E1,1.4406837E1,1.543599E1,-2.5255778E-1,-5.3563076E-1,3.758654E-1,1.234764E0,1.8616252E-1,1.9020748E-1,-2.874849E-1,3.998036E-1,-3.686639E-2,1.1964378E0,3.6518344E-1,8.4360465E-2,8.6787784E-1,6.626445E-1,1.8633494E-1],"categories":[],"categories_nodes":[],"categories_segments":[],"categories_sizes":[],"default_left":[0,0,0,0,0,0,0,0,0,0,0,0,0,0,0,0,0,0,0,0,0,0,0,0,0,0,0,0,0],"id":33,"left_children":[1,3,5,7,9,11,13,15,17,19,21,23,25,27,-1,-1,-1,-1,-1,-1,-1,-1,-1,-1,-1,-1,-1,-1,-1],"loss_changes":[2.0135822E4,9.318425E3,3.5541504E3,6.257347E3,7.1930225E3,1.5685781E3,1.5809539E3,3.1634714E3,1.6022725E3,2.4925781E3,6.250014E3,5.958828E2,1.097345E3,5.37822E2,0E0,0E0,0E0,0E0,0E0,0E0,0E0,0E0,0E0,0E0,0E0,0E0,0E0,0E0,0E0],"parents":[2147483647,0,0,1,1,2,2,3,3,4,4,5,5,6,6,7,7,8,8,9,9,10,10,11,11,12,12,13,13],"right_children":[2,4,6,8,10,12,14,16,18,20,22,24,26,28,-1,-1,-1,-1,-1,-1,-1,-1,-1,-1,-1,-1,-1,-1,-1],"split_conditions":[2.1081696E1,-2.969E1,4E0,5.0429333E1,-2.6639345E0,2.606575E1,1.2023262E1,-9.16E0,1.01256E5,-1.9047619E1,-7.15E0,1.27009514E2,1.837E1,1.2382838E2,-2.5255778E-1,-5.3563076E-1,3.758654E-1,1.234764E0,1.8616252E-1,1.9020748E-1,-2.874849E-1,3.998036E-1,-3.686639E-2,1.1964378E0,3.6518344E-1,8.4360465E-2,8.6787784E-1,6.626445E-1,1.8633494E-1],"split_indices":[10,1,3,16,10,4,15,2,11,10,1,35,2,17,0,0,0,0,0,0,0,0,0,0,0,0,0,0,0],"split_type":[0,0,0,0,0,0,0,0,0,0,0,0,0,0,0,0,0,0,0,0,0,0,0,0,0,0,0,0,0],"sum_hessian":[4.46E2,4.12E2,3.4E1,2.4E1,3.88E2,2.1E1,1.3E1,1.4E1,1E1,1.33E2,2.55E2,1.5E1,6E0,1E1,3E0,4E0,1E1,8E0,2E0,1E1,1.23E2,3.3E1,2.22E2,1.3E1,2E0,4E0,2E0,5E0,5E0],"tree_param":{"num_deleted":"0","num_feature":"44","num_nodes":"29","size_leaf_vector":"1"}},{"base_weights":[-5.08679E-2,-2.6954093E0,1.4555921E1,1.544331E1,-3.6981666E0,1.1448416E1,3.5265842E1,-1.0340031E1,2.3008202E1,-1.4455358E0,-9.189997E0,1.6983456E1,-4.142529E0,-3.5425523E-1,1.3103303E0,-7.149885E-2,-3.5200173E-1,1.030225E0,1.5452367E-1,-9.782371E-2,2.9426536E-1,5.479911E-1,-2.983326E-1,8.0263084E-1,1.9321719E-1,-8.0697787E-1,1.7053963E-1],"categories":[],"categories_nodes":[],"categories_segments":[],"categories_sizes":[],"default_left":[0,0,0,0,0,0,0,0,0,0,0,0,0,0,0,0,0,0,0,0,0,0,0,0,0,0,0],"id":34,"left_children":[1,3,5,7,9,11,13,15,17,19,21,23,25,-1,-1,-1,-1,-1,-1,-1,-1,-1,-1,-1,-1,-1,-1],"loss_changes":[1.6378987E4,6.5868677E3,3.779414E3,3.9438218E3,4.205249E3,5.07555E3,3.683623E3,2.7468872E1,2.8586904E3,4.996369E3,2.2323076E3,4.2572695E3,3.731067E3,0E0,0E0,0E0,0E0,0E0,0E0,0E0,0E0,0E0,0E0,0E0,0E0,0E0,0E0],"parents":[2147483647,0,0,1,1,2,2,3,3,4,4,5,5,6,6,7,7,8,8,9,9,10,10,11,11,12,12],"right_children":[2,4,6,8,10,12,14,16,18,20,22,24,26,-1,-1,-1,-1,-1,-1,-1,-1,-1,-1,-1,-1,-1,-1],"split_conditions":[1.1036877E1,-2.969E1,4.9789528E1,5.123E3,3.32E0,3.003E1,-5.9952538E1,-8.58E1,2.03667E5,1.7E0,-1.9047619E1,3.51803E-1,9.2E0,-3.5425523E-1,1.3103303E0,-7.149885E-2,-3.5200173E-1,1.030225E0,1.5452367E-1,-9.782371E-2,2.9426536E-1,5.479911E-1,-2.983326E-1,8.0263084E-1,1.9321719E-1,-8.0697787E-1,1.7053963E-1],"split_indices":[10,1,10,8,1,1,5,1,34,2,10,43,2,0,0,0,0,0,0,0,0,0,0,0,0,0,0],"split_type":[0,0,0,0,0,0,0,0,0,0,0,0,0,0,0,0,0,0,0,0,0,0,0,0,0,0,0],"sum_hessian":[4.22E2,3.58E2,6.4E1,1.8E1,3.4E2,5.7E1,7E0,4E0,1.4E1,2.42E2,9.8E1,4.2E1,1.5E1,1E0,6E0,1E0,3E0,8E0,6E0,2.09E2,3.3E1,2E0,9.6E1,2.1E1,2.1E1,4E0,1.1E1],"tree_param":{"num_deleted":"0","num_feature":"44","num_nodes":"27","size_leaf_vector":"1"}},{"base_weights":[4.6298656E-1,-9.213076E-1,2.0781826E1,2.0098629E1,-2.2818987E0,-1.0215225E0,2.4311222E1,-5.9854918E0,2.822314E1,-8.298969E0,3.4797418E-1,4.538787E0,-3.489414E-1,2.8481169E1,9.519767E0,7.692355E-1,-4.6590406E-1,8.541871E-2,1.0316744E0,-4.8481646E-1,-1.8004355E-1,2.0152128E-1,-7.248125E-2,3.4051206E-2,1.5885067E-1,9.0236473E-1,-4.1497136E-3,1.3204729E-3,4.9846733E-1],"categories":[],"categories_nodes":[],"categories_segments":[],"categories_sizes":[],"default_left":[0,0,0,0,0,0,0,0,0,0,0,0,0,0,0,0,0,0,0,0,0,0,0,0,0,0,0,0,0],"id":35,"left_children":[1,3,5,7,9,11,13,15,17,19,21,23,-1,25,27,-1,-1,-1,-1,-1,-1,-1,-1,-1,-1,-1,-1,-1,-1],"loss_changes":[1.2788918E4,1.2229269E4,2.256462E3,5.678869E3,6.3483643E3,3.4776282E2,1.2708555E3,2.5112686E3,3.0314375E3,2.1065908E3,4.9456655E3,4.286072E0,0E0,8.7291895E2,4.699355E2,0E0,0E0,0E0,0E0,0E0,0E0,0E0,0E0,0E0,0E0,0E0,0E0,0E0,0E0],"parents":[2147483647,0,0,1,1,2,2,3,3,4,4,5,5,6,6,7,7,8,8,9,9,10,10,11,11,13,13,14,14],"right_children":[2,4,6,8,10,12,14,16,18,20,22,24,-1,26,28,-1,-1,-1,-1,-1,-1,-1,-1,-1,-1,-1,-1,-1,-1],"split_conditions":[2.2758812E1,-2.969E1,8.5E-1,-9.16E0,-2.6639345E0,4.133E1,3.3488173E0,-9.991E1,1.2513894E2,-1.0847049E1,-1.49E0,2E0,-3.489414E-1,1.5455443E2,1.76E0,7.692355E-1,-4.6590406E-1,8.541871E-2,1.0316744E0,-4.8481646E-1,-1.8004355E-1,2.0152128E-1,-7.248125E-2,3.4051206E-2,1.5885067E-1,9.0236473E-1,-4.1497136E-3,1.3204729E-3,4.9846733E-1],"split_indices":[10,1,7,2,10,1,22,1,9,5,1,3,0,4,7,0,0,0,0,0,0,0,0,0,0,0,0,0,0],"split_type":[0,0,0,0,0,0,0,0,0,0,0,0,0,0,0,0,0,0,0,0,0,0,0,0,0,0,0,0,0],"sum_hessian":[4.53E2,4.25E2,2.8E1,2.5E1,4E2,4E0,2.4E1,6E0,1.9E1,1.21E2,2.79E2,3E0,1E0,1.8E1,6E0,1E0,5E0,4E0,1.5E1,2.6E1,9.5E1,8.4E1,1.95E2,1E0,2E0,1.7E1,1E0,3E0,3E0],"tree_param":{"num_deleted":"0","num_feature":"44","num_nodes":"29","size_leaf_vector":"1"}},{"base_weights":[5.6638503E-1,-8.561188E-1,2.0903376E1,1.7035423E1,-2.0957475E0,1.1052953E0,1.415693E1,3.0797682E0,3.1827684E1,-5.611051E0,1.503271E0,-3.073727E-1,1.7109486E1,-2.07882E-1,5.774526E-1,4.975744E-1,1.1027694E0,-2.0528466E-1,2.937188E-1,4.2137906E-1,6.358613E-3,2.1137035E-1,8.5880524E-1],"categories":[],"categories_nodes":[],"categories_segments":[],"categories_sizes":[],"default_left":[0,0,0,0,0,0,0,0,0,0,0,0,0,0,0,0,0,0,0,0,0,0,0],"id":36,"left_children":[1,3,5,7,9,-1,11,13,15,17,19,-1,21,-1,-1,-1,-1,-1,-1,-1,-1,-1,-1],"loss_changes":[1.2833641E4,9.239932E3,2.5969863E3,5.475741E3,4.9299233E3,0E0,1.7604067E3,2.5609019E3,3.6743066E2,3.80435E3,3.1229673E3,0E0,2.116474E3,0E0,0E0,0E0,0E0,0E0,0E0,0E0,0E0,0E0,0E0],"parents":[2147483647,0,0,1,1,2,2,3,3,4,4,6,6,7,7,8,8,9,9,10,10,12,12],"right_children":[2,4,6,8,10,-1,12,14,16,18,20,-1,22,-1,-1,-1,-1,-1,-1,-1,-1,-1,-1],"split_conditions":[2.3691557E1,-2.969E1,1.038E1,-3.28E0,0E0,1.1052953E0,-1.1278343E1,6.86472E1,1.5808974E2,1.3586426E2,-7.52E0,-3.073727E-1,4.748248E1,-2.07882E-1,5.774526E-1,4.975744E-1,1.1027694E0,-2.0528466E-1,2.937188E-1,4.2137906E-1,6.358613E-3,2.1137035E-1,8.5880524E-1],"split_indices":[10,1,1,2,10,0,4,6,9,25,1,0,10,0,0,0,0,0,0,0,0,0,0],"split_type":[0,0,0,0,0,0,0,0,0,0,0,0,0,0,0,0,0,0,0,0,0,0,0],"sum_hessian":[4.42E2,4.14E2,2.8E1,2.6E1,3.88E2,7E0,2.1E1,1.4E1,1.2E1,1.96E2,1.92E2,2E0,1.9E1,9E0,5E0,4E0,8E0,1.82E2,1.4E1,1.7E1,1.75E2,1.1E1,8E0],"tree_param":{"num_deleted":"0","num_feature":"44","num_nodes":"23","size_leaf_vector":"1"}},{"base_weights":[6.749184E-1,-3.3418653E0,8.130277E0,-5.1766696E0,5.2141275E0,1.8292046E1,4.6437316E0,-1.4477141E1,-4.3886094E0,-4.6519014E-1,7.3074937E0,4.4957207E1,1.2081494E1,-4.408051E0,1.1567932E1,-6.1748475E-1,6.873663E-1,-1.1577632E-1,-5.360729E-1,9.900165E-2,5.260391E-1,1.479093E-1,1.5241991E0,5.234395E-3,5.4081213E-1,-1.9274165E-1,9.000076E-1,4.45123E-1,-8.708746E-2],"categories":[],"categories_nodes":[],"categories_segments":[],"categories_sizes":[],"default_left":[0,0,0,0,0,0,0,0,0,0,0,0,0,0,0,0,0,0,0,0,0,0,0,0,0,0,0,0,0],"id":37,"left_children":[1,3,5,7,9,11,13,15,17,-1,19,21,23,25,27,-1,-1,-1,-1,-1,-1,-1,-1,-1,-1,-1,-1,-1,-1],"loss_changes":[1.3173712E4,4.516783E3,5.3711943E3,1.6661875E3,2.325464E3,5.915458E3,7.321449E3,4.5807734E3,1.4939438E3,0E0,1.8684131E3,1.3884502E3,2.333059E3,3.7316445E3,3.1656943E3,0E0,0E0,0E0,0E0,0E0,0E0,0E0,0E0,0E0,0E0,0E0,0E0,0E0,0E0],"parents":[2147483647,0,0,1,1,2,2,3,3,4,4,5,5,6,6,7,7,8,8,10,10,11,11,12,12,13,13,14,14],"right_children":[2,4,6,8,10,12,14,16,18,-1,20,22,24,26,28,-1,-1,-1,-1,-1,-1,-1,-1,-1,-1,-1,-1,-1,-1],"split_conditions":[1.2513894E2,3.22E0,-6.664262E0,-4.98E0,-1.1278343E1,1.1712256E2,6.642066E-1,2.4260201E0,2.55E0,-4.6519014E-1,1.785E1,1.524551E2,9.513851E1,3.6854206E1,1.56974E2,-6.1748475E-1,6.873663E-1,-1.1577632E-1,-5.360729E-1,9.900165E-2,5.260391E-1,1.479093E-1,1.5241991E0,5.234395E-3,5.4081213E-1,-1.9274165E-1,9.000076E-1,4.45123E-1,-8.708746E-2],"split_indices":[9,2,4,2,4,12,10,21,2,0,0,9,17,5,30,0,0,0,0,0,0,0,0,0,0,0,0,0,0],"split_type":[0,0,0,0,0,0,0,0,0,0,0,0,0,0,0,0,0,0,0,0,0,0,0,0,0,0,0,0,0],"sum_hessian":[4.38E2,2.85E2,1.53E2,2.35E2,5E1,3.8E1,1.15E2,1.7E1,2.18E2,4E0,4.6E1,6E0,3.2E1,5E1,6.5E1,1.5E1,2E0,2.11E2,7E0,3.4E1,1.2E1,1E0,5E0,1.1E1,2.1E1,4.8E1,2E0,5.3E1,1.2E1],"tree_param":{"num_deleted":"0","num_feature":"44","num_nodes":"29","size_leaf_vector":"1"}},{"base_weights":[2.1935023E-1,-2.546111E0,1.2541722E1,3.3423212E0,-4.878012E0,2.1780062E1,6.680346E0,1.6982721E0,2.265312E1,1.0939182E0,-5.5049257E0,1.6176275E1,1.0760672E0,1.2483522E0,2.6319565E1,-1.7958076E-1,1.8616281E-1,1.1446904E0,1.7159748E-1,-6.5055084E-1,-1.3223657E-1,3.447478E-1,8.4945166E-1,2.1674271E-1,-3.6538965E-1,-3.3211887E-1,9.349694E-1],"categories":[],"categories_nodes":[],"categories_segments":[],"categories_sizes":[],"default_left":[0,0,0,0,0,0,0,0,0,0,0,0,0,0,0,0,0,0,0,0,0,0,0,0,0,0,0],"id":38,"left_children":[1,3,5,7,9,11,13,15,17,-1,19,21,-1,23,25,-1,-1,-1,-1,-1,-1,-1,-1,-1,-1,-1,-1],"loss_changes":[1.5059909E4,4.973282E3,4.2406006E3,3.2315625E3,6.913446E3,1.867251E3,5.407829E3,3.362041E3,1.8819033E3,0E0,4.44847E3,1.0394067E3,0E0,3.3782947E3,2.3381787E3,0E0,0E0,0E0,0E0,0E0,0E0,0E0,0E0,0E0,0E0,0E0,0E0],"parents":[2147483647,0,0,1,1,2,2,3,3,4,4,5,5,6,6,7,7,8,8,10,10,11,11,13,13,14,14],"right_children":[2,4,6,8,10,12,14,16,18,-1,20,22,-1,24,26,-1,-1,-1,-1,-1,-1,-1,-1,-1,-1,-1,-1],"split_conditions":[8.64672E0,-5.63E0,5.39E0,4.343783E1,-1.9047619E1,2.0361992E1,4.748248E1,-8.49143E0,2.0279158E2,1.0939182E0,-9.701492E0,1.10588234E2,1.0760672E0,3.003E1,-1.1278343E1,-1.7958076E-1,1.8616281E-1,1.1446904E0,1.7159748E-1,-6.5055084E-1,-1.3223657E-1,3.447478E-1,8.4945166E-1,2.1674271E-1,-3.6538965E-1,-3.3211887E-1,9.349694E-1],"split_indices":[10,1,1,18,10,10,10,10,17,0,10,25,0,1,4,0,0,0,0,0,0,0,0,0,0,0,0],"split_type":[0,0,0,0,0,0,0,0,0,0,0,0,0,0,0,0,0,0,0,0,0,0,0,0,0,0,0],"sum_hessian":[4.4E2,3.6E2,8E1,1.02E2,2.58E2,3E1,5E1,9.5E1,7E0,3E0,2.55E2,2.3E1,7E0,4E1,1E1,3.5E1,6E1,3E0,4E0,1.5E1,2.4E2,1.8E1,5E0,2.8E1,1.2E1,1E0,9E0],"tree_param":{"num_deleted":"0","num_feature":"44","num_nodes":"27","size_leaf_vector":"1"}},{"base_weights":[3.6195266E-1,-3.024468E0,7.5111694E0,2.3162695E1,-3.6753187E0,2.9265839E1,4.9320245E0,-2.1852352E-1,1.1039473E0,-3.9968934E0,2.7027472E1,1.2064894E0,2.0864016E1,3.1838124E0,3.790879E1,-3.9509263E-2,-2.51719E-1,-1.1544257E-1,1.3316787E0,4.0399882E-1,7.670423E-1,2.520612E-1,-4.4898354E-2,1.2994107E0,1.6326427E-1],"categories":[],"categories_nodes":[],"categories_segments":[],"categories_sizes":[],"default_left":[0,0,0,0,0,0,0,0,0,0,0,0,0,0,0,0,0,0,0,0,0,0,0,0,0],"id":39,"left_children":[1,3,5,7,9,11,13,-1,-1,15,17,-1,19,21,23,-1,-1,-1,-1,-1,-1,-1,-1,-1,-1],"loss_changes":[1.0094184E4,4.9085645E3,7.374192E3,3.174156E3,2.842914E3,4.4898145E2,6.855002E3,0E0,0E0,3.2270376E3,1.7789814E3,0E0,3.6621094E0,2.8457024E3,8.171553E2,0E0,0E0,0E0,0E0,0E0,0E0,0E0,0E0,0E0,0E0],"parents":[2147483647,0,0,1,1,2,2,3,3,4,4,5,5,6,6,9,9,10,10,12,12,13,13,14,14],"right_children":[2,4,6,8,10,12,14,-1,-1,16,18,-1,20,22,24,-1,-1,-1,-1,-1,-1,-1,-1,-1,-1],"split_conditions":[2.3794043E0,-5.895E1,-1.015E1,2E0,2.5909735E1,-2.969E1,4.9789528E1,-2.1852352E-1,1.1039473E0,2.8E-1,-2.73E0,1.2064894E0,1.263E1,4.99E0,4E0,-3.9509263E-2,-2.51719E-1,-1.1544257E-1,1.3316787E0,4.0399882E-1,7.670423E-1,2.520612E-1,-4.4898354E-2,1.2994107E0,1.6326427E-1],"split_indices":[10,1,1,3,22,1,10,0,0,1,0,0,0,1,3,0,0,0,0,0,0,0,0,0,0],"split_type":[0,0,0,0,0,0,0,0,0,0,0,0,0,0,0,0,0,0,0,0,0,0,0,0,0],"sum_hessian":[4.15E2,2.82E2,1.33E2,6E0,2.76E2,1.3E1,1.2E2,2E0,4E0,2.74E2,2E0,4E0,9E0,1.15E2,5E0,1.71E2,1.03E2,1E0,1E0,5E0,4E0,5.4E1,6.1E1,4E0,1E0],"tree_param":{"num_deleted":"0","num_feature":"44","num_nodes":"25","size_leaf_vector":"1"}},{"base_weights":[5.7198966E-1,-7.2299796E-1,2.2886694E1,-3.6915717E0,3.870889E0,2.9295982E1,8.949436E0,-4.524055E0,8.082405E0,-4.1869408E-1,9.165152E0,3.4031773E1,-2.5697052E0,-1.9038554E-1,1.4226211E1,-1.23312004E-1,-5.9087235E-1,5.6104535E-1,1.01292305E-1,2.1860595E-1,-1.298331E-1,1.7427947E-1,9.7150177E-1,1.1155375E0,3.0229804E-1,2.8633604E-2,-1.4427035E-1,9.457048E-2,4.663939E-1],"categories":[],"categories_nodes":[],"categories_segments":[],"categories_sizes":[],"default_left":[0,0,0,0,0,0,0,0,0,0,0,0,0,0,0,0,0,0,0,0,0,0,0,0,0,0,0,0,0],"id":40,"left_children":[1,3,5,7,9,11,13,15,17,19,21,23,25,-1,27,-1,-1,-1,-1,-1,-1,-1,-1,-1,-1,-1,-1,-1,-1],"loss_changes":[1.2644651E4,5.6601284E3,1.8816875E3,2.5065781E3,3.7055964E3,2.502E3,8.166861E2,1.4001401E3,7.864049E2,2.772603E3,5.499786E3,6.826709E2,2.826499E1,0E0,5.333423E1,0E0,0E0,0E0,0E0,0E0,0E0,0E0,0E0,0E0,0E0,0E0,0E0,0E0,0E0],"parents":[2147483647,0,0,1,1,2,2,3,3,4,4,5,5,6,6,7,7,8,8,9,9,10,10,11,11,12,12,14,14],"right_children":[2,4,6,8,10,12,14,16,18,20,22,24,26,-1,28,-1,-1,-1,-1,-1,-1,-1,-1,-1,-1,-1,-1,-1,-1],"split_conditions":[2.5201939E1,1.1421857E2,4E0,1.1036877E1,2.3734383E-1,6.834277E1,1.4578032E0,2.4374092E1,-1.3363483E0,2.56028E1,1.2089184E1,2.079E1,3.401E1,-1.9038554E-1,2.38E1,-1.23312004E-1,-5.9087235E-1,5.6104535E-1,1.01292305E-1,2.1860595E-1,-1.298331E-1,1.7427947E-1,9.7150177E-1,1.1155375E0,3.0229804E-1,2.8633604E-2,-1.4427035E-1,9.457048E-2,4.663939E-1],"split_indices":[10,9,3,10,21,5,5,28,18,6,5,7,0,0,0,0,0,0,0,0,0,0,0,0,0,0,0,0,0],"split_type":[0,0,0,0,0,0,0,0,0,0,0,0,0,0,0,0,0,0,0,0,0,0,0,0,0,0,0,0,0],"sum_hessian":[4.36E2,4.13E2,2.3E1,2.51E2,1.62E2,1.5E1,8E0,2.35E2,1.6E1,9E1,7.2E1,1.3E1,2E0,2E0,6E0,2.3E2,5E0,4E0,1.2E1,3E1,6E1,6.4E1,8E0,1.1E1,2E0,1E0,1E0,1E0,5E0],"tree_param":{"num_deleted":"0","num_feature":"44","num_nodes":"29","size_leaf_vector":"1"}},{"base_weights":[8.664277E-1,-1.7952262E0,1.1094037E1,1.3590573E1,-2.9189692E0,3.2531227E1,8.6358595E0,-8.969993E0,1.8551186E1,-3.193185E0,1.2971312E0,1.1006498E0,3.5962752E-1,5.8983526E0,2.6017872E1,-3.178556E-1,-3.703818E-2,7.351599E-1,-1.2636931E-1,-2.4118134E-1,-3.760464E-2,2.6397774E-1,-2.0866229E-1,-3.633613E-1,9.31262E-1],"categories":[],"categories_nodes":[],"categories_segments":[],"categories_sizes":[],"default_left":[0,0,0,0,0,0,0,0,0,0,0,0,0,0,0,0,0,0,0,0,0,0,0,0,0],"id":41,"left_children":[1,3,5,7,9,11,13,15,17,19,-1,-1,-1,21,23,-1,-1,-1,-1,-1,-1,-1,-1,-1,-1],"loss_changes":[1.1997754E4,6.0910596E3,4.5144385E3,2.8523452E3,4.27687E3,3.2881348E2,3.7959575E3,4.9776672E1,2.8139668E3,3.0543708E3,0E0,0E0,0E0,2.7831936E3,2.4832764E3,0E0,0E0,0E0,0E0,0E0,0E0,0E0,0E0,0E0,0E0],"parents":[2147483647,0,0,1,1,2,2,3,3,4,4,5,5,6,6,7,7,8,8,9,9,13,13,14,14],"right_children":[2,4,6,8,10,12,14,16,18,20,-1,-1,-1,22,24,-1,-1,-1,-1,-1,-1,-1,-1,-1,-1],"split_conditions":[7.73331E0,-2.969E1,-1.015E1,1.0404235E2,2.5909735E1,2.1051956E2,4.748248E1,2E0,1.2522388E2,7.381672E1,1.2971312E0,1.1006498E0,3.5962752E-1,3.003E1,-1.1278343E1,-3.178556E-1,-3.703818E-2,7.351599E-1,-1.2636931E-1,-2.4118134E-1,-3.760464E-2,2.6397774E-1,-2.0866229E-1,-3.633613E-1,9.31262E-1],"split_indices":[10,1,1,9,22,9,10,3,35,9,0,0,0,1,4,0,0,0,0,0,0,0,0,0,0],"split_type":[0,0,0,0,0,0,0,0,0,0,0,0,0,0,0,0,0,0,0,0,0,0,0,0,0],"sum_hessian":[4.39E2,3.49E2,9E1,2.3E1,3.26E2,8E0,8.2E1,4E0,1.9E1,3.25E2,1E0,6E0,2E0,7.2E1,1E1,3E0,1E0,1.5E1,4E0,9.2E1,2.33E2,5.9E1,1.3E1,1E0,9E0],"tree_param":{"num_deleted":"0","num_feature":"44","num_nodes":"25","size_leaf_vector":"1"}},{"base_weights":[7.1412706E-1,-1.231093E0,1.4317684E1,-3.2300217E0,8.134943E0,2.0710283E1,4.5231867E0,-9.3342085E0,-1.6248584E0,2.2036522E1,5.143288E-2,4.1513166E0,2.50088E1,6.594891E0,-6.158145E-1,-3.233964E-1,1.3172181E-1,1.0745663E-1,-1.386717E-1,1.4385642E0,3.948003E-1,3.7899163E-1,-2.2767739E-1,-3.1669867E-1,6.449523E-1,7.9346603E-1,-1.6489358E-1,9.158834E-2,4.1245922E-1],"categories":[],"categories_nodes":[],"categories_segments":[],"categories_sizes":[],"default_left":[0,0,0,0,0,0,0,0,0,0,0,0,0,0,0,0,0,0,0,0,0,0,0,0,0,0,0,0,0],"id":42,"left_children":[1,3,5,7,9,11,13,15,17,19,21,23,25,27,-1,-1,-1,-1,-1,-1,-1,-1,-1,-1,-1,-1,-1,-1,-1],"loss_changes":[1.1634406E4,7.2342617E3,3.35E3,3.1006663E3,7.640267E3,2.245087E3,1.3290027E3,1.3568872E3,3.9652249E3,5.119959E3,4.3256895E3,2.2680706E3,1.2875449E3,5.1546655E2,0E0,0E0,0E0,0E0,0E0,0E0,0E0,0E0,0E0,0E0,0E0,0E0,0E0,0E0,0E0],"parents":[2147483647,0,0,1,1,2,2,3,3,4,4,5,5,6,6,7,7,8,8,9,9,10,10,11,11,12,12,13,13],"right_children":[2,4,6,8,10,12,14,16,18,20,22,24,26,28,-1,-1,-1,-1,-1,-1,-1,-1,-1,-1,-1,-1,-1,-1,-1],"split_conditions":[1.3E1,1.6567488E2,3.071471E-1,-6.44E0,-6.664262E0,-2.58971E0,1.9364407E2,9.23825E0,-1.49E0,1.1712256E2,-3.28E0,1.6419894E2,1.5262431E2,2.788E1,-6.158145E-1,-3.233964E-1,1.3172181E-1,1.0745663E-1,-1.386717E-1,1.4385642E0,3.948003E-1,3.7899163E-1,-2.2767739E-1,-3.1669867E-1,6.449523E-1,7.9346603E-1,-1.6489358E-1,9.158834E-2,4.1245922E-1],"split_indices":[0,9,43,0,4,5,30,14,1,12,1,9,30,1,0,0,0,0,0,0,0,0,0,0,0,0,0,0,0],"split_type":[0,0,0,0,0,0,0,0,0,0,0,0,0,0,0,0,0,0,0,0,0,0,0,0,0,0,0,0,0],"sum_hessian":[4.38E2,3.84E2,5.4E1,3.17E2,6.7E1,3.2E1,2.2E1,6.5E1,2.52E2,2.4E1,4.3E1,7E0,2.5E1,2.1E1,1E0,5.9E1,6E0,9.2E1,1.6E2,5E0,1.9E1,1.6E1,2.7E1,4E0,3E0,2.4E1,1E0,1.5E1,6E0],"tree_param":{"num_deleted":"0","num_feature":"44","num_nodes":"29","size_leaf_vector":"1"}},{"base_weights":[-2.3741143E-2,-2.381806E0,1.0829707E1,-4.4588437E0,5.959426E0,2.744735E1,6.4374533E0,-4.7672606E0,7.928955E-1,8.348878E0,-9.690065E0,1.6443434E1,1.4510183E0,9.762143E0,-1.0166729E1,-8.040051E-2,-2.8532174E-1,7.3842406E-1,2.048688E-1,-4.2400625E-1,1.5256029E-2,-2.2223464E-1,6.5863395E-1,1.280686E-1,7.9007655E-1,-4.854916E-1,1.3222802E-1],"categories":[],"categories_nodes":[],"categories_segments":[],"categories_sizes":[],"default_left":[0,0,0,0,0,0,0,0,0,0,0,0,0,0,0,0,0,0,0,0,0,0,0,0,0,0,0],"id":43,"left_children":[1,3,5,7,9,11,13,15,-1,17,19,21,-1,23,25,-1,-1,-1,-1,-1,-1,-1,-1,-1,-1,-1,-1],"loss_changes":[1.1184399E4,6.2462666E3,5.5164434E3,2.8696572E3,2.7732485E3,2.8878945E3,3.5770857E3,2.8061294E3,0E0,1.3893882E3,4.6035974E2,1.7399753E3,0E0,4.712838E3,1.0358512E3,0E0,0E0,0E0,0E0,0E0,0E0,0E0,0E0,0E0,0E0,0E0,0E0],"parents":[2147483647,0,0,1,1,2,2,3,3,4,4,5,5,6,6,7,7,9,9,10,10,11,11,13,13,14,14],"right_children":[2,4,6,8,10,12,14,16,-1,18,20,22,-1,24,26,-1,-1,-1,-1,-1,-1,-1,-1,-1,-1,-1,-1],"split_conditions":[1.7097981E2,3.29E0,1.1874056E2,3.154E1,2.9168083E1,1E0,1.5714285E2,2.33E0,7.928955E-1,-1.366E1,5.258299E1,-3.1864636E0,1.4510183E0,2.9600782E0,1.1303665E2,-8.040051E-2,-2.8532174E-1,7.3842406E-1,2.048688E-1,-4.2400625E-1,1.5256029E-2,-2.2223464E-1,6.5863395E-1,1.280686E-1,7.9007655E-1,-4.854916E-1,1.3222802E-1],"split_indices":[9,2,12,1,5,24,30,1,0,1,4,5,0,21,17,0,0,0,0,0,0,0,0,0,0,0,0],"split_type":[0,0,0,0,0,0,0,0,0,0,0,0,0,0,0,0,0,0,0,0,0,0,0,0,0,0,0],"sum_hessian":[4.35E2,3.58E2,7.7E1,2.87E2,7.1E1,1.5E1,6.2E1,2.85E2,2E0,6.2E1,9E0,1.1E1,4E0,5.2E1,1E1,1.99E2,8.6E1,4E0,5.8E1,6E0,3E0,2E0,9E0,4E1,1.2E1,7E0,3E0],"tree_param":{"num_deleted":"0","num_feature":"44","num_nodes":"27","size_leaf_vector":"1"}},{"base_weights":[-3.306968E-2,-2.0875885E0,9.104568E0,3.8546247E0,-4.2269926E0,3.7326386E0,2.2120544E1,-5.0124943E-1,1.5199948E1,-9.715174E0,-1.1668985E0,-1.2465199E1,5.6017265E0,3.2914696E1,5.876094E0,-4.051595E-1,8.829734E-2,6.9776416E-1,1.3593854E-1,6.676165E-1,-3.211766E-1,-5.1178005E-2,8.337278E-1,-4.893666E-1,-1.9390903E-1,2.193651E-1,-2.4480677E-1,4.2258355E-1,1.1146398E0,-6.302233E-1,6.119602E-1],"categories":[],"categories_nodes":[],"categories_segments":[],"categories_sizes":[],"default_left":[0,0,0,0,0,0,0,0,0,0,0,0,0,0,0,0,0,0,0,0,0,0,0,0,0,0,0,0,0,0,0],"id":44,"left_children":[1,3,5,7,9,11,13,15,17,19,21,23,25,27,29,-1,-1,-1,-1,-1,-1,-1,-1,-1,-1,-1,-1,-1,-1,-1,-1],"loss_changes":[7.77244E3,4.3132183E3,5.231422E3,4.455311E3,4.170456E3,1.7349617E3,3.6641826E3,2.99605E3,2.0440391E3,3.0570693E3,2.560504E3,3.309265E1,1.2366212E3,5.144551E2,4.332707E3,0E0,0E0,0E0,0E0,0E0,0E0,0E0,0E0,0E0,0E0,0E0,0E0,0E0,0E0,0E0,0E0],"parents":[2147483647,0,0,1,1,2,2,3,3,4,4,5,5,6,6,7,7,8,8,9,9,10,10,11,11,12,12,13,13,14,14],"right_children":[2,4,6,8,10,12,14,16,18,20,22,24,26,28,30,-1,-1,-1,-1,-1,-1,-1,-1,-1,-1,-1,-1,-1,-1,-1,-1],"split_conditions":[7.04E0,-6.7E0,1.5808974E2,1.6274753E2,-2.8E-1,-1.685048E1,1.067E1,-1.304E1,-5.616491E0,-1.82E1,3.530499E0,-2.1030684E1,2.9168083E1,3.66E2,2.113E1,-4.051595E-1,8.829734E-2,6.9776416E-1,1.3593854E-1,6.676165E-1,-3.211766E-1,-5.1178005E-2,8.337278E-1,-4.893666E-1,-1.9390903E-1,2.193651E-1,-2.4480677E-1,4.2258355E-1,1.1146398E0,-6.302233E-1,6.119602E-1],"split_indices":[0,1,9,9,2,18,1,0,4,0,41,5,5,39,0,0,0,0,0,0,0,0,0,0,0,0,0,0,0,0,0],"split_type":[0,0,0,0,0,0,0,0,0,0,0,0,0,0,0,0,0,0,0,0,0,0,0,0,0,0,0,0,0,0,0],"sum_hessian":[4.12E2,3.37E2,7.5E1,8.9E1,2.48E2,5.4E1,2.1E1,6.5E1,2.4E1,8.8E1,1.6E2,5E0,4.9E1,1.2E1,9E0,1.3E1,5.2E1,1.3E1,1.1E1,2E0,8.6E1,1.58E2,2E0,2E0,3E0,4.4E1,5E0,3E0,9E0,3E0,6E0],"tree_param":{"num_deleted":"0","num_feature":"44","num_nodes":"31","size_leaf_vector":"1"}},{"base_weights":[-8.263636E-2,-3.4694486E0,7.438687E0,-4.370205E0,8.791635E0,2.1390316E1,4.258067E0,-4.680264E0,7.807611E-1,-3.7735635E-1,1.1703156E1,1.0158529E1,4.022921E1,-2.5054538E0,9.009997E0,-6.37919E-2,-2.6001847E-1,7.1496755E-1,1.7007096E-1,8.099973E-2,7.0147556E-1,1.386377E0,3.8574922E-1,3.3352947E-1,-2.96861E-1,2.36077E-1,1.2473952E0],"categories":[],"categories_nodes":[],"categories_segments":[],"categories_sizes":[],"default_left":[0,0,0,0,0,0,0,0,0,0,0,0,0,0,0,0,0,0,0,0,0,0,0,0,0,0,0],"id":45,"left_children":[1,3,5,7,9,11,13,15,-1,-1,17,19,21,23,25,-1,-1,-1,-1,-1,-1,-1,-1,-1,-1,-1,-1],"loss_changes":[1.1157645E4,3.3737847E3,5.9438945E3,2.7794932E3,1.4538231E3,4.8811914E3,3.6222297E3,2.8326182E3,0E0,0E0,1.2554751E3,1.6136052E3,8.797129E2,4.84167E3,2.124996E3,0E0,0E0,0E0,0E0,0E0,0E0,0E0,0E0,0E0,0E0,0E0,0E0],"parents":[2147483647,0,0,1,1,2,2,3,3,4,4,5,5,6,6,7,7,10,10,11,11,12,12,13,13,14,14],"right_children":[2,4,6,8,10,12,14,16,-1,-1,18,20,22,24,26,-1,-1,-1,-1,-1,-1,-1,-1,-1,-1,-1,-1],"split_conditions":[1.2513894E2,1.5313652E1,1.11111115E2,3.085E1,4.7E1,7.899674E-2,2.6E-1,1.36E0,7.807611E-1,-3.7735635E-1,-5.175942E0,8.99E0,7.271E1,-1.45E1,2.2911837E1,-6.37919E-2,-2.6001847E-1,7.1496755E-1,1.7007096E-1,8.099973E-2,7.0147556E-1,1.386377E0,3.8574922E-1,3.3352947E-1,-2.96861E-1,2.36077E-1,1.2473952E0],"split_indices":[9,10,12,1,11,21,2,1,0,0,18,0,6,1,22,0,0,0,0,0,0,0,0,0,0,0,0],"split_type":[0,0,0,0,0,0,0,0,0,0,0,0,0,0,0,0,0,0,0,0,0,0,0,0,0,0,0],"sum_hessian":[4.36E2,3.01E2,1.35E2,2.81E2,2E1,2.4E1,1.11E2,2.79E2,2E0,2E0,1.8E1,1.6E1,8E0,4.6E1,6.5E1,1.71E2,1.08E2,5E0,1.3E1,1.1E1,5E0,6E0,2E0,1.6E1,3E1,6.4E1,1E0],"tree_param":{"num_deleted":"0","num_feature":"44","num_nodes":"27","size_leaf_vector":"1"}},{"base_weights":[3.7542227E-1,-2.6889164E0,7.0193725E0,2.3486106E0,-5.122096E0,3.30025E1,5.2218537E0,-9.399268E0,6.5465326E0,1.0249231E0,-5.8636703E0,1.7783529E-1,1.0693755E0,2.6009212E0,1.844656E1,-4.0128982E-1,3.2325166E-1,5.8295887E-2,4.702643E-1,-4.26608E-1,-1.2178638E-1,1.7770281E-1,-2.1681435E-1,-3.4323257E-1,6.1243784E-1],"categories":[],"categories_nodes":[],"categories_segments":[],"categories_sizes":[],"default_left":[0,0,0,0,0,0,0,0,0,0,0,0,0,0,0,0,0,0,0,0,0,0,0,0,0],"id":46,"left_children":[1,3,5,7,9,11,13,15,17,-1,19,-1,-1,21,23,-1,-1,-1,-1,-1,-1,-1,-1,-1,-1],"loss_changes":[9.160206E3,3.7872502E3,6.459798E3,5.0425176E3,6.260123E3,4.3280664E2,4.5966045E3,2.3104617E3,3.121309E3,0E0,3.0329214E3,0E0,0E0,3.73269E3,1.527603E3,0E0,0E0,0E0,0E0,0E0,0E0,0E0,0E0,0E0,0E0],"parents":[2147483647,0,0,1,1,2,2,3,3,4,4,5,5,6,6,7,7,8,8,10,10,13,13,14,14],"right_children":[2,4,6,8,10,12,14,16,18,-1,20,-1,-1,22,24,-1,-1,-1,-1,-1,-1,-1,-1,-1,-1],"split_conditions":[1.84E0,-5.63E0,-1.366E1,-4.36E0,-1.82E1,2.9E-1,3.415E1,2.4260201E0,1.2513894E2,1.0249231E0,-2.09E0,1.7783529E-1,1.0693755E0,1.39E1,4.1E-3,-4.0128982E-1,3.2325166E-1,5.8295887E-2,4.702643E-1,-4.26608E-1,-1.2178638E-1,1.7770281E-1,-2.1681435E-1,-3.4323257E-1,6.1243784E-1],"split_indices":[0,1,1,2,0,7,0,21,9,0,2,0,0,1,6,0,0,0,0,0,0,0,0,0,0],"split_type":[0,0,0,0,0,0,0,0,0,0,0,0,0,0,0,0,0,0,0,0,0,0,0,0,0],"sum_hessian":[4.48E2,3.07E2,1.41E2,1E2,2.07E2,8E0,1.33E2,2.6E1,7.4E1,3E0,2.04E2,1E0,7E0,1.12E2,2.1E1,2.2E1,4E0,5E1,2.4E1,3.5E1,1.69E2,8.4E1,2.8E1,1E0,2E1],"tree_param":{"num_deleted":"0","num_feature":"44","num_nodes":"25","size_leaf_vector":"1"}},{"base_weights":[2.8053072E-1,-1.371743E0,1.4785706E1,-2.9745963E0,5.8163133E0,-7.9821467E0,1.8400436E1,-3.2262752E0,7.685319E-1,1.8303015E1,-1.3286289E0,2.875216E-1,-1.6925438E1,2.4531715E1,8.662135E0,-5.6726273E-2,-2.5862882E-1,-2.0527905E-1,7.7439976E-1,1.956861E-1,-2.0092922E-1,-1.3970652E-1,-5.648507E-1,7.8373295E-1,-1.8151137E-1,3.49359E-1,8.210565E-2],"categories":[],"categories_nodes":[],"categories_segments":[],"categories_sizes":[],"default_left":[0,0,0,0,0,0,0,0,0,0,0,0,0,0,0,0,0,0,0,0,0,0,0,0,0,0,0],"id":47,"left_children":[1,3,5,7,9,11,13,15,-1,17,19,-1,21,23,25,-1,-1,-1,-1,-1,-1,-1,-1,-1,-1,-1,-1],"loss_changes":[1.0781249E4,4.6719463E3,3.9326611E3,2.4645547E3,6.6263584E3,1.2619119E3,2.175831E3,2.353834E3,0E0,5.275626E3,2.067118E3,0E0,2.9048706E1,1.3270693E3,2.686222E2,0E0,0E0,0E0,0E0,0E0,0E0,0E0,0E0,0E0,0E0,0E0,0E0],"parents":[2147483647,0,0,1,1,2,2,3,3,4,4,5,5,6,6,7,7,9,9,10,10,12,12,13,13,14,14],"right_children":[2,4,6,8,10,12,14,16,-1,18,20,-1,22,24,26,-1,-1,-1,-1,-1,-1,-1,-1,-1,-1,-1,-1],"split_conditions":[1.509E1,1.7097981E2,-1.1278343E1,3.154E1,-6.664262E0,3.82E0,2.882953E-2,4.99E0,7.685319E-1,-2.3198349E1,-3.28E0,2.875216E-1,5.763124E0,1.12803986E2,1.3604651E2,-5.6726273E-2,-2.5862882E-1,-2.0527905E-1,7.7439976E-1,1.956861E-1,-2.0092922E-1,-1.3970652E-1,-5.648507E-1,7.8373295E-1,-1.8151137E-1,3.49359E-1,8.210565E-2],"split_indices":[0,9,4,1,4,1,43,1,0,5,1,0,14,30,9,0,0,0,0,0,0,0,0,0,0,0,0],"split_type":[0,0,0,0,0,0,0,0,0,0,0,0,0,0,0,0,0,0,0,0,0,0,0,0,0,0,0],"sum_hessian":[4.48E2,4.03E2,4.5E1,3.3E2,7.3E1,6E0,3.9E1,3.28E2,2E0,2.6E1,4.7E1,2E0,4E0,2.3E1,1.6E1,2.64E2,6.4E1,6E0,2E1,1.9E1,2.8E1,1E0,3E0,2.2E1,1E0,1E1,6E0],"tree_param":{"num_deleted":"0","num_feature":"44","num_nodes":"27","size_leaf_vector":"1"}},{"base_weights":[2.5525805E-1,-1.3233486E0,1.2279136E1,2.3606145E0,-4.0887E0,8.579801E0,9.188451E-1,-5.6871486E0,5.267565E0,9.525969E-1,-4.9070225E0,1.4925564E1,-2.0034597E0,6.5830696E-1,-2.473235E-1,6.5951914E-1,1.0690584E-1,-4.6875107E-1,-9.6286565E-2,6.9240844E-1,2.6313022E-1,-5.335462E-1,1.2661281E-1],"categories":[],"categories_nodes":[],"categories_segments":[],"categories_sizes":[],"default_left":[0,0,0,0,0,0,0,0,0,0,0,0,0,0,0,0,0,0,0,0,0,0,0],"id":48,"left_children":[1,3,5,7,9,11,-1,13,15,-1,17,19,21,-1,-1,-1,-1,-1,-1,-1,-1,-1,-1],"loss_changes":[8.1780684E3,3.891071E3,3.1311782E3,3.8666465E3,6.5498086E3,2.917734E3,0E0,3.289543E3,3.368389E3,0E0,3.8432607E3,1.1526567E3,1.7448292E3,0E0,0E0,0E0,0E0,0E0,0E0,0E0,0E0,0E0,0E0],"parents":[2147483647,0,0,1,1,2,2,3,3,4,4,5,5,7,7,8,8,10,10,11,11,12,12],"right_children":[2,4,6,8,10,12,-1,14,16,-1,18,20,22,-1,-1,-1,-1,-1,-1,-1,-1,-1,-1],"split_conditions":[1.509E1,-1.63E0,2.1993768E2,-8.509306E0,-1.9047619E1,1.2023262E1,9.188451E-1,-7.471E1,-2.545E1,9.525969E-1,-3.83E0,2.882953E-2,1.301099E2,6.5830696E-1,-2.473235E-1,6.5951914E-1,1.0690584E-1,-4.6875107E-1,-9.6286565E-2,6.9240844E-1,2.6313022E-1,-5.335462E-1,1.2661281E-1],"split_indices":[0,1,9,10,10,15,0,1,1,0,0,43,12,0,0,0,0,0,0,0,0,0,0],"split_type":[0,0,0,0,0,0,0,0,0,0,0,0,0,0,0,0,0,0,0,0,0,0,0],"sum_hessian":[4.29E2,3.8E2,4.9E1,1.63E2,2.17E2,4.2E1,7E0,4.3E1,1.2E2,4E0,2.13E2,2.6E1,1.6E1,3E0,4E1,1E1,1.1E2,2.8E1,1.85E2,1E1,1.6E1,4E0,1.2E1],"tree_param":{"num_deleted":"0","num_feature":"44","num_nodes":"23","size_leaf_vector":"1"}},{"base_weights":[7.7338524E-2,-4.7115487E-1,1.0386411E0,1.532745E1,-1.4978806E0,-6.8878684E0,2.2002678E1,-2.5712287E0,7.3845654E0,6.045166E-1,-4.4258094E-1,1.0049343E0,4.1587234E-1,-9.089105E-2,4.284784E-1,2.5333092E-1,-5.886981E-1],"categories":[],"categories_nodes":[],"categories_segments":[],"categories_sizes":[],"default_left":[0,0,0,0,0,0,0,0,0,0,0,0,0,0,0,0,0],"id":49,"left_children":[1,3,-1,5,7,9,11,13,15,-1,-1,-1,-1,-1,-1,-1,-1],"loss_changes":[8.485699E3,7.1763467E3,0E0,4.155443E3,3.97558E3,1.7858433E3,1.5006816E3,2.91E3,1.4537339E3,0E0,0E0,0E0,0E0,0E0,0E0,0E0,0E0],"parents":[2147483647,0,0,1,1,3,3,4,4,5,5,6,6,7,7,8,8],"right_children":[2,4,-1,6,8,10,12,14,16,-1,-1,-1,-1,-1,-1,-1,-1],"split_conditions":[4.9789528E1,-2.969E1,1.0386411E0,-2.528E1,1.263E1,-9.991E1,1.1997832E2,2.5E1,1.1111111E1,6.045166E-1,-4.4258094E-1,1.0049343E0,4.1587234E-1,-9.089105E-2,4.284784E-1,2.5333092E-1,-5.886981E-1],"split_indices":[10,1,0,0,0,1,12,14,13,0,0,0,0,0,0,0,0],"split_type":[0,0,0,0,0,0,0,0,0,0,0,0,0,0,0,0,0],"sum_hessian":[4.46E2,4.4E2,6E0,2.6E1,4.14E2,6E0,2E1,3.7E2,4.4E1,1E0,5E0,7E0,1.3E1,3.61E2,9E0,4.3E1,1E0],"tree_param":{"num_deleted":"0","num_feature":"44","num_nodes":"17","size_leaf_vector":"1"}},{"base_weights":[4.095237E-1,-2.2239046E0,5.549914E0,1.615429E1,-2.8005118E0,2.0938704E1,3.4093976E0,-2.437492E0,9.454564E-1,-3.3447185E0,1.2390799E1,9.3837714E-1,1.455548E1,2.9214798E1,2.5828009E0,-2.4894078E-1,1.270662E-1,-2.6232097E-1,-6.477813E-2,1.1556281E0,3.1294398E-2,5.0070566E-1,1.67395E-1,1.054974E0,1.7042707E-1,-4.5923287E-1,1.2156473E-1],"categories":[],"categories_nodes":[],"categories_segments":[],"categories_sizes":[],"default_left":[0,0,0,0,0,0,0,0,0,0,0,0,0,0,0,0,0,0,0,0,0,0,0,0,0,0,0],"id":50,"left_children":[1,3,5,7,9,11,13,15,-1,17,19,-1,21,23,25,-1,-1,-1,-1,-1,-1,-1,-1,-1,-1,-1,-1],"loss_changes":[5.9550195E3,3.1289668E3,4.8366655E3,2.6471008E3,2.3810645E3,7.3282227E2,2.7401914E3,2.3068428E2,0E0,1.7348848E3,2.924974E3,0E0,1.5595679E2,3.6042725E2,3.4531328E3,0E0,0E0,0E0,0E0,0E0,0E0,0E0,0E0,0E0,0E0,0E0,0E0],"parents":[2147483647,0,0,1,1,2,2,3,3,4,4,5,5,6,6,7,7,9,9,10,10,12,12,13,13,14,14],"right_children":[2,4,6,8,10,12,14,16,-1,18,20,-1,22,24,26,-1,-1,-1,-1,-1,-1,-1,-1,-1,-1,-1,-1],"split_conditions":[1.84E0,-5.895E1,-7.64E0,2.4317E4,5.2671757E1,-2.5E1,-1.1447372E0,-2.942E1,9.454564E-1,-9.24E0,-2.114328E1,9.3837714E-1,8.283E3,4.33E0,6.409607E1,-2.4894078E-1,1.270662E-1,-2.6232097E-1,-6.477813E-2,1.1556281E0,3.1294398E-2,5.0070566E-1,1.67395E-1,1.054974E0,1.7042707E-1,-4.5923287E-1,1.2156473E-1],"split_indices":[0,1,1,8,15,1,36,0,0,0,4,0,11,1,17,0,0,0,0,0,0,0,0,0,0,0,0],"split_type":[0,0,0,0,0,0,0,0,0,0,0,0,0,0,0,0,0,0,0,0,0,0,0,0,0,0,0],"sum_hessian":[4.38E2,2.9E2,1.48E2,8E0,2.82E2,1.7E1,1.31E2,4E0,4E0,2.73E2,9E0,5E0,1.2E1,3E0,1.28E2,2E0,2E0,4.8E1,2.25E2,2E0,7E0,9E0,3E0,2E0,1E0,9E0,1.19E2],"tree_param":{"num_deleted":"0","num_feature":"44","num_nodes":"27","size_leaf_vector":"1"}},{"base_weights":[3.6540088E-1,-2.758712E0,5.032184E0,-3.741851E0,6.9864E0,1.5724493E0,9.854847E0,-2.9117184E0,-1.0071391E1,-3.5178387E-1,9.123408E0,-1.2381037E-1,2.5580095E1,1.0911149E1,-1.1622303E1,-2.0197894E-1,-4.1528303E-2,-4.2472953E-1,-1.2802273E-1,6.783383E-1,1.528137E-1,-6.603675E-2,6.3377225E-1,1.2996103E0,2.945978E-1,3.7902477E-1,-7.6611646E-2,-4.7900057E-1,2.11627E-2],"categories":[],"categories_nodes":[],"categories_segments":[],"categories_sizes":[],"default_left":[0,0,0,0,0,0,0,0,0,0,0,0,0,0,0,0,0,0,0,0,0,0,0,0,0,0,0,0,0],"id":51,"left_children":[1,3,5,7,9,11,13,15,17,-1,19,21,23,25,27,-1,-1,-1,-1,-1,-1,-1,-1,-1,-1,-1,-1,-1,-1],"loss_changes":[6.545524E3,2.6033772E3,2.9878276E3,1.2579927E3,1.1067029E3,4.3198267E3,1.8282896E3,1.2629767E3,6.03646E2,0E0,1.1348951E3,4.460916E3,1.5317222E3,1.7026719E3,2.2548871E2,0E0,0E0,0E0,0E0,0E0,0E0,0E0,0E0,0E0,0E0,0E0,0E0,0E0,0E0],"parents":[2147483647,0,0,1,1,2,2,3,3,4,4,5,5,6,6,7,7,8,8,10,10,11,11,12,12,13,13,14,14],"right_children":[2,4,6,8,10,12,14,16,18,-1,20,22,24,26,28,-1,-1,-1,-1,-1,-1,-1,-1,-1,-1,-1,-1,-1,-1],"split_conditions":[1.1421857E2,1.1036877E1,1.46E0,2.2139713E1,4.7E1,1.4726094E2,9.363296E0,-6.274886E0,-1.2542744E0,-3.5178387E-1,-1.2069069E1,3.0804468E1,-6.664262E0,2.2652212E1,2.113E1,-2.0197894E-1,-4.1528303E-2,-4.2472953E-1,-1.2802273E-1,6.783383E-1,1.528137E-1,-6.603675E-2,6.3377225E-1,1.2996103E0,2.945978E-1,3.7902477E-1,-7.6611646E-2,-4.7900057E-1,2.11627E-2],"split_indices":[9,10,0,4,11,25,13,5,10,0,18,5,4,23,0,0,0,0,0,0,0,0,0,0,0,0,0,0,0],"split_type":[0,0,0,0,0,0,0,0,0,0,0,0,0,0,0,0,0,0,0,0,0,0,0,0,0,0,0,0,0],"sum_hessian":[4.47E2,2.68E2,1.79E2,2.44E2,2.4E1,1.05E2,7.4E1,2.17E2,2.7E1,2E0,2.2E1,9.9E1,6E0,7.1E1,3E0,6.1E1,1.56E2,1.5E1,1.2E1,4E0,1.8E1,9.1E1,8E0,2E0,4E0,6.3E1,8E0,2E0,1E0],"tree_param":{"num_deleted":"0","num_feature":"44","num_nodes":"29","size_leaf_vector":"1"}},{"base_weights":[7.066479E-1,-2.0921116E0,5.954277E0,3.8166E0,-4.256203E0,1.9366001E1,4.0367985E0,1.1139475E0,1.1598596E1,9.758092E-1,-4.9398227E0,2.236327E1,9.144707E0,1.8179196E0,1.5451993E1,-1.04810126E-1,1.9020039E-1,8.337168E-1,1.3045706E-1,-2.654401E-1,-3.1763382E-2,6.982196E-1,1.5785912E-1,3.385057E-1,9.734144E-2,-4.5599997E-1,9.69703E-2,-8.235668E-2,5.894499E-1],"categories":[],"categories_nodes":[],"categories_segments":[],"categories_sizes":[],"default_left":[0,0,0,0,0,0,0,0,0,0,0,0,0,0,0,0,0,0,0,0,0,0,0,0,0,0,0,0,0],"id":52,"left_children":[1,3,5,7,9,11,13,15,17,-1,19,21,23,25,27,-1,-1,-1,-1,-1,-1,-1,-1,-1,-1,-1,-1,-1,-1],"loss_changes":[6.5040454E3,3.711685E3,3.8821929E3,1.6275782E3,5.4915664E3,3.7757764E2,3.4166448E3,1.4428533E3,2.2269946E3,0E0,3.1607056E3,9.5575195E1,3.9102264E1,2.817245E3,1.733896E3,0E0,0E0,0E0,0E0,0E0,0E0,0E0,0E0,0E0,0E0,0E0,0E0,0E0,0E0],"parents":[2147483647,0,0,1,1,2,2,3,3,4,4,5,5,6,6,7,7,8,8,10,10,11,11,12,12,13,13,14,14],"right_children":[2,4,6,8,10,12,14,16,18,-1,20,22,24,26,28,-1,-1,-1,-1,-1,-1,-1,-1,-1,-1,-1,-1,-1,-1],"split_conditions":[1.73E0,-7.15E0,-7.64E0,6.86472E1,-1.82E1,1.84E3,3.415E1,-8.26E0,7.271E1,9.758092E-1,-9E-1,2.7722693E2,-1.042E1,6.409607E1,1.02E0,-1.04810126E-1,1.9020039E-1,8.337168E-1,1.3045706E-1,-2.654401E-1,-3.1763382E-2,6.982196E-1,1.5785912E-1,3.385057E-1,9.734144E-2,-4.5599997E-1,9.69703E-2,-8.235668E-2,5.894499E-1],"split_indices":[0,1,1,6,0,29,0,0,6,0,0,12,1,17,7,0,0,0,0,0,0,0,0,0,0,0,0,0,0],"split_type":[0,0,0,0,0,0,0,0,0,0,0,0,0,0,0,0,0,0,0,0,0,0,0,0,0,0,0,0,0],"sum_hessian":[4.41E2,2.88E2,1.53E2,7.7E1,2.11E2,1.8E1,1.35E2,5.8E1,1.9E1,3E0,2.08E2,1.3E1,5E0,1.14E2,2.1E1,3.1E1,2.7E1,5E0,1.4E1,1.03E2,1.05E2,1.2E1,1E0,3E0,2E0,8E0,1.06E2,4E0,1.7E1],"tree_param":{"num_deleted":"0","num_feature":"44","num_nodes":"29","size_leaf_vector":"1"}},{"base_weights":[2.2994647E-2,-1.3216372E0,9.410551E0,-5.2424145E0,6.823736E-1,1.6904778E1,-2.5991867E0,-3.0754254E0,-1.2683466E1,8.574733E-1,3.4884554E-1,-7.980366E-1,2.4314201E1,-8.628894E0,5.499351E0,-3.1834924E-1,-4.9623147E-2,-4.6977922E-1,4.0014334E-2,5.2286774E-2,-2.2753175E-1,-5.353883E-1,1.4920142E-1,1.1808575E0,4.740802E-1,1.3964548E-2,-4.3113196E-1,3.7847844E-1,-1.24213055E-1],"categories":[],"categories_nodes":[],"categories_segments":[],"categories_sizes":[],"default_left":[0,0,0,0,0,0,0,0,0,0,0,0,0,0,0,0,0,0,0,0,0,0,0,0,0,0,0,0,0],"id":53,"left_children":[1,3,5,7,9,11,13,15,17,-1,19,21,23,25,27,-1,-1,-1,-1,-1,-1,-1,-1,-1,-1,-1,-1,-1,-1],"loss_changes":[5.5412266E3,3.0207727E3,4.9941416E3,2.0572012E3,2.3629204E3,4.4791035E3,1.1217532E3,1.0750078E3,1.2305688E3,0E0,2.8112231E3,1.1710739E3,2.451873E3,6.8556885E2,7.382602E2,0E0,0E0,0E0,0E0,0E0,0E0,0E0,0E0,0E0,0E0,0E0,0E0,0E0,0E0],"parents":[2147483647,0,0,1,1,2,2,3,3,4,4,5,5,6,6,7,7,8,8,10,10,11,11,12,12,13,13,14,14],"right_children":[2,4,6,8,10,12,14,16,18,-1,20,22,24,26,28,-1,-1,-1,-1,-1,-1,-1,-1,-1,-1,-1,-1,-1,-1],"split_conditions":[2.0285715E2,-2.731136E0,1.1966E4,3.059306E0,-4.871E1,1E0,1.6153318E1,-3.3210922E1,1.128E1,8.574733E-1,2.493086E1,-1.41E1,2.2955793E1,-6.106565E0,1.5717949E2,-3.1834924E-1,-4.9623147E-2,-4.6977922E-1,4.0014334E-2,5.2286774E-2,-2.2753175E-1,-5.353883E-1,1.4920142E-1,1.1808575E0,4.740802E-1,1.3964548E-2,-4.3113196E-1,3.7847844E-1,-1.24213055E-1],"split_indices":[9,5,34,36,1,3,23,5,7,0,5,0,15,18,12,0,0,0,0,0,0,0,0,0,0,0,0,0,0],"split_type":[0,0,0,0,0,0,0,0,0,0,0,0,0,0,0,0,0,0,0,0,0,0,0,0,0,0,0,0,0],"sum_hessian":[4.37E2,3.83E2,5.4E1,1.29E2,2.54E2,3.3E1,2.1E1,1.01E2,2.8E1,2E0,2.52E2,1E1,2.3E1,1.2E1,9E0,1.5E1,8.6E1,2.3E1,5E0,2.15E2,3.7E1,2E0,8E0,7E0,1.6E1,5E0,7E0,5E0,4E0],"tree_param":{"num_deleted":"0","num_feature":"44","num_nodes":"29","size_leaf_vector":"1"}},{"base_weights":[4.428992E-1,-5.1354533E-1,1.5233674E1,1.3765703E1,-1.4182856E0,2.9946733E0,2.0229322E1,2.5216858E1,5.748375E0,-4.6256804E0,1.0619395E0,7.871456E0,-2.4810443E0,2.2099926E1,-2.0162274E-1,9.5310904E-2,1.0262591E0,1.9721564E-2,5.045122E-1,1.8296127E-1,-1.5975977E-1,2.1335552E-2,1.1839415E0,1.01604514E-1,2.919683E-1,2.216669E-2,-1.4621891E-1,5.0709003E-1,1.0819023E0],"categories":[],"categories_nodes":[],"categories_segments":[],"categories_sizes":[],"default_left":[0,0,0,0,0,0,0,0,0,0,0,0,0,0,0,0,0,0,0,0,0,0,0,0,0,0,0,0,0],"id":54,"left_children":[1,3,5,7,9,11,13,15,17,19,21,23,25,27,-1,-1,-1,-1,-1,-1,-1,-1,-1,-1,-1,-1,-1,-1,-1],"loss_changes":[6.288894E3,5.4196704E3,1.5902471E3,2.1502358E3,3.1392063E3,2.598644E2,1.1063726E3,1.8730908E3,8.9055493E2,1.3230403E3,2.9757317E3,8.764069E0,4.212653E1,6.966289E2,0E0,0E0,0E0,0E0,0E0,0E0,0E0,0E0,0E0,0E0,0E0,0E0,0E0,0E0,0E0],"parents":[2147483647,0,0,1,1,2,2,3,3,4,4,5,5,6,6,7,7,8,8,9,9,10,10,11,11,12,12,13,13],"right_children":[2,4,6,8,10,12,14,16,18,20,22,24,26,28,-1,-1,-1,-1,-1,-1,-1,-1,-1,-1,-1,-1,-1,-1,-1],"split_conditions":[2.5201939E1,-2.969E1,1.34E0,1.1712256E2,-6.932661E-1,1.1685856E2,1.2984265E2,1.2513894E2,8.56E0,-1.9047619E1,2.2911837E1,1.555E1,3.664E1,3.9965E4,-2.0162274E-1,9.5310904E-2,1.0262591E0,1.9721564E-2,5.045122E-1,1.8296127E-1,